%YAML:1.0
---
opencv_ml_svm:
   format: 3
   svmType: C_SVC
   kernel:
      type: RBF
      gamma: 1.0000000000000001e-01
   C: 10.
   term_criteria: { epsilon:1.1920928955078125e-07, iterations:1000 }
   var_count: 2
   class_count: 2
   class_labels: !!opencv-matrix
      rows: 2
      cols: 1
      dt: i
      data: [ 0, 1 ]
   sv_total: 67
   support_vectors:
      - [ 1.16641798e+01, -2.03083916e+01 ]
      - [ -1.33477604e+00, -4.14017677e+00 ]
      - [ 9.69999027e+00, -5.75467873e+00 ]
      - [ -1.72110825e+01, 1.02070904e+00 ]
      - [ 1.49082708e+01, -4.88413954e+00 ]
      - [ 4.15401316e+00, -1.71382637e+01 ]
      - [ -1.09096746e+01, -4.18598127e+00 ]
      - [ 1.24924955e+01, -3.13736415e+00 ]
      - [ -7.28638947e-01, -3.02699494e+00 ]
      - [ 6.68095016e+00, -2.81157932e+01 ]
      - [ -1.50483322e+01, 2.28329778e+00 ]
      - [ 7.94987774e+00, -1.55215797e+01 ]
      - [ 4.53499365e+00, -1.02120686e+01 ]
      - [ 8.79446602e+00, -1.03399591e+01 ]
      - [ -1.72027054e+01, 9.32162857e+00 ]
      - [ 3.62792253e-01, 3.04859233e+00 ]
      - [ -1.75975456e+01, 8.67030811e+00 ]
      - [ -4.26596594e+00, -2.53435669e+01 ]
      - [ -1.79054236e+00, -1.51242075e+01 ]
      - [ -7.97742796e+00, 4.18444777e+00 ]
      - [ 2.21349125e+01, -1.73668766e+01 ]
      - [ 2.28025322e+01, -4.66457748e+00 ]
      - [ 8.86090469e+00, -2.05309238e+01 ]
      - [ -1.11751804e+01, -8.53098297e+00 ]
      - [ -1.40742254e+00, -7.91368341e+00 ]
      - [ 7.04866573e-02, -8.90856838e+00 ]
      - [ -1.56822071e+01, 8.54670429e+00 ]
      - [ -4.62479162e+00, -1.99733372e+01 ]
      - [ -1.22665453e+01, 7.55487967e+00 ]
      - [ -7.04243660e+00, 9.56351852e+00 ]
      - [ -2.85508041e+01, 3.32154751e+00 ]
      - [ -1.15122557e+01, -3.20372391e+00 ]
      - [ 4.50983810e+00, 7.41542292e+00 ]
      - [ -7.51760817e+00, -1.84085388e+01 ]
      - [ -2.58349109e+00, 2.34078336e+00 ]
      - [ -1.33449345e+01, -1.53421545e+01 ]
      - [ -1.65285149e+01, 2.47747779e+00 ]
      - [ -8.50726891e+00, -1.51413794e+01 ]
      - [ 2.47131443e+00, -1.61261463e+01 ]
      - [ 2.45652652e+00, -1.62695599e+00 ]
      - [ 1.24293718e+01, -6.30304050e+00 ]
      - [ -2.36110115e+00, 4.97709322e+00 ]
      - [ -2.19243088e+01, -5.28143311e+00 ]
      - [ 5.67286348e+00, 6.37963438e+00 ]
      - [ 1.93613796e+01, -2.00050850e+01 ]
      - [ 6.11339903e+00, 2.64690423e+00 ]
      - [ 1.92201030e+00, -4.13114882e+00 ]
      - [ -1.62942181e+01, -9.98492718e+00 ]
      - [ -1.38365126e+01, -5.96110535e+00 ]
      - [ 9.76837444e+00, -2.12901859e+01 ]
      - [ -1.14612474e+01, -1.22158747e+01 ]
      - [ -3.29648328e+00, -1.13361387e+01 ]
      - [ 1.66966858e+01, -1.17622137e+01 ]
      - [ -8.87218571e+00, 2.67135954e+00 ]
      - [ -9.95333004e+00, 1.61077576e+01 ]
      - [ 1.89488773e+01, 3.89737487e+00 ]
      - [ -4.21373129e+00, -6.06044865e+00 ]
      - [ 8.98794460e+00, -1.82768726e+01 ]
      - [ 1.09954853e+01, 9.04891872e+00 ]
      - [ 3.88177967e+00, -1.22915268e+01 ]
      - [ -1.52258701e+01, 1.46198149e+01 ]
      - [ 9.81672192e+00, 1.31207180e+01 ]
      - [ -1.82954845e+01, -3.18779564e+00 ]
      - [ -1.27185326e+01, -1.42167121e-01 ]
      - [ -7.87296009e+00, -3.62390137e+00 ]
      - [ -2.16671505e+01, -3.04993095e+01 ]
      - [ 6.30678594e-01, 9.96910858e+00 ]
   decision_functions:
      -
         sv_count: 67
         rho: -6.4304581469488836e-02
         alpha: [ 6.1467507011007472e-01, 9.0213958816975524e+00,
             6.3305478990839981e-01, 6.2573034825476670e-01,
             4.5899113497070315e-01, 8.0346953528164511e-01,
             4.7471448908861863e-01, 9.3434531085855066e-01,
             4.0263395050976980e-01, 7.8659868828242452e-01,
             6.4309751880229227e-01, 9.6137137232657177e-01,
             6.3212213473397572e-01, 1.3101578034623251e-01,
             1.2143129604621319e+00, 9.3535072426775323e-01,
             9.2688056111650441e-01, 6.8970785457950101e-01,
             9.8837367065854831e-01, 7.5842180913827706e-01,
             9.3417640542896840e-01, 4.1160644079266967e-01,
             1.1477451344947578e-01, 9.9686889375027710e-01,
             3.4992436944491478e+00, 6.9055080485012033e-01,
             7.5833025797219156e-01, 6.0662733903908972e-01,
             3.1547267123311035e-01, 1.5858781312091921e+00,
             1.5196476642235290e-01, 2.0260887019728075e+00,
             4.0143367761520954e-01, 4.8886233519242978e-01,
             8.1338063469048627e-01, 1.1423795659602889e+00,
             -2.0760791952483704e+00, -8.2614599760473773e-01,
             -4.6086733557637294e-01, -1.3039838128848205e+00,
             -3.0554977301346947e-01, -1.0642962079117020e+00,
             -1.0105088626901353e+00, -8.6829827625921163e-01,
             -9.2530032405001805e-01, -1.5606435155335019e-01,
             -4.2520553046235996e+00, -9.1181028913767637e-01,
             -5.5256188331856448e-01, -6.7757886748335716e-01,
             -3.8747063314904612e-01, -5.7254184577552614e-01,
             -1.1010333419163221e+00, -4.9950561116786119e-01,
             -1.0087181982875324e+00, -7.7513725921896603e-01,
             -3.5034419673511086e+00, -1.1470076466665083e-01,
             -2.0408183661419524e-01, -9.4998329784861753e+00,
             -9.9026918177567191e-01, -2.4158789801424915e-01,
             -7.7017657843896425e-01, -6.5539518771743932e-01,
             -3.9740321865426115e-01, -3.9720080476026687e-01,
             -1.0643046320724936e+00 ]
         index: [ 0, 1, 2, 4, 5, 61, 7, 9, 59, 58, 11, 12, 13, 57, 15,
             55, 52, 18, 51, 20, 21, 22, 49, 46, 24, 45, 44, 27, 43, 41,
             40, 39, 38, 32, 66, 33, 34, 35, 36, 37, 31, 30, 29, 28, 42,
             26, 25, 47, 48, 23, 50, 19, 17, 53, 54, 16, 56, 14, 10, 8,
             60, 6, 62, 63, 64, 3, 65 ]
