<?xml version="1.0"?>
<opencv_storage>
<cascade>
  <stageType>BOOST</stageType>
  <featureType>HAAR</featureType>
  <height>30</height>
  <width>30</width>
  <stageParams>
    <boostType>GAB</boostType>
    <minHitRate>9.9500000476837158e-01</minHitRate>
    <maxFalseAlarm>5.0000000000000000e-01</maxFalseAlarm>
    <weightTrimRate>9.4999999999999996e-01</weightTrimRate>
    <maxDepth>1</maxDepth>
    <maxWeakCount>100</maxWeakCount></stageParams>
  <featureParams>
    <maxCatCount>0</maxCatCount>
    <featSize>1</featSize>
    <mode>BASIC</mode></featureParams>
  <stageNum>10</stageNum>
  <stages>
    <!-- stage 0 -->
    <_>
      <maxWeakCount>20</maxWeakCount>
      <stageThreshold>-1.6506308317184448e+00</stageThreshold>
      <weakClassifiers>
        <_>
          <internalNodes>
            0 -1 189 -4.2582228779792786e-02</internalNodes>
          <leafValues>
            5.9305208921432495e-01 -5.3624349832534790e-01</leafValues></_>
        <_>
          <internalNodes>
            0 -1 126 -2.4679645895957947e-02</internalNodes>
          <leafValues>
            -9.0012329816818237e-01 1.4878118038177490e-01</leafValues></_>
        <_>
          <internalNodes>
            0 -1 308 -1.2888287194073200e-02</internalNodes>
          <leafValues>
            5.7905960083007812e-01 -2.0226050913333893e-01</leafValues></_>
        <_>
          <internalNodes>
            0 -1 178 -1.5031723887659609e-04</internalNodes>
          <leafValues>
            -4.4064545631408691e-01 1.8059855699539185e-01</leafValues></_>
        <_>
          <internalNodes>
            0 -1 178 9.5678871730342507e-05</internalNodes>
          <leafValues>
            2.1732620894908905e-01 -5.1503044366836548e-01</leafValues></_>
        <_>
          <internalNodes>
            0 -1 22 -2.4556290358304977e-02</internalNodes>
          <leafValues>
            6.7328894138336182e-01 -1.0041221231222153e-01</leafValues></_>
        <_>
          <internalNodes>
            0 -1 14 1.5391245484352112e-02</internalNodes>
          <leafValues>
            -1.3656635582447052e-01 6.2495434284210205e-01</leafValues></_>
        <_>
          <internalNodes>
            0 -1 55 -5.5762205272912979e-02</internalNodes>
          <leafValues>
            -7.0595338940620422e-02 7.1326929330825806e-01</leafValues></_>
        <_>
          <internalNodes>
            0 -1 323 2.5782338343560696e-03</internalNodes>
          <leafValues>
            -1.2934930622577667e-01 4.0284234285354614e-01</leafValues></_>
        <_>
          <internalNodes>
            0 -1 95 8.9136093854904175e-02</internalNodes>
          <leafValues>
            -9.2736184597015381e-02 6.2345558404922485e-01</leafValues></_>
        <_>
          <internalNodes>
            0 -1 151 3.1496424227952957e-02</internalNodes>
          <leafValues>
            -1.7518742382526398e-01 3.3678832650184631e-01</leafValues></_>
        <_>
          <internalNodes>
            0 -1 120 -1.7681278404779732e-04</internalNodes>
          <leafValues>
            -4.0278273820877075e-01 1.4150813221931458e-01</leafValues></_>
        <_>
          <internalNodes>
            0 -1 120 9.5790383056737483e-05</internalNodes>
          <leafValues>
            1.5552179515361786e-01 -3.2912775874137878e-01</leafValues></_>
        <_>
          <internalNodes>
            0 -1 77 -1.0000816546380520e-02</internalNodes>
          <leafValues>
            4.6677565574645996e-01 -1.2756969034671783e-01</leafValues></_>
        <_>
          <internalNodes>
            0 -1 67 -7.5123205780982971e-02</internalNodes>
          <leafValues>
            7.2273027896881104e-01 -6.6345669329166412e-02</leafValues></_>
        <_>
          <internalNodes>
            0 -1 96 -8.8178634643554688e-02</internalNodes>
          <leafValues>
            5.3214550018310547e-01 -8.6330026388168335e-02</leafValues></_>
        <_>
          <internalNodes>
            0 -1 321 -5.8952933177351952e-03</internalNodes>
          <leafValues>
            6.8339067697525024e-01 -8.3291210234165192e-02</leafValues></_>
        <_>
          <internalNodes>
            0 -1 197 9.9369566887617111e-03</internalNodes>
          <leafValues>
            -5.8871977031230927e-02 7.1674114465713501e-01</leafValues></_>
        <_>
          <internalNodes>
            0 -1 214 -1.9921790226362646e-04</internalNodes>
          <leafValues>
            -4.2789465188980103e-01 1.2921231985092163e-01</leafValues></_>
        <_>
          <internalNodes>
            0 -1 227 1.9577920436859131e-02</internalNodes>
          <leafValues>
            -1.4586231112480164e-01 3.9266189932823181e-01</leafValues></_></weakClassifiers></_>
    <!-- stage 1 -->
    <_>
      <maxWeakCount>20</maxWeakCount>
      <stageThreshold>-1.4402990341186523e+00</stageThreshold>
      <weakClassifiers>
        <_>
          <internalNodes>
            0 -1 183 -2.3013092577457428e-02</internalNodes>
          <leafValues>
            1.9183672964572906e-01 -5.7321017980575562e-01</leafValues></_>
        <_>
          <internalNodes>
            0 -1 260 -9.3054063618183136e-03</internalNodes>
          <leafValues>
            3.7571960687637329e-01 -2.5643563270568848e-01</leafValues></_>
        <_>
          <internalNodes>
            0 -1 152 2.6629131287336349e-02</internalNodes>
          <leafValues>
            -1.6514982283115387e-01 4.4721418619155884e-01</leafValues></_>
        <_>
          <internalNodes>
            0 -1 13 -7.4035171419382095e-03</internalNodes>
          <leafValues>
            5.9793365001678467e-01 -1.1333678662776947e-01</leafValues></_>
        <_>
          <internalNodes>
            0 -1 5 8.5274353623390198e-02</internalNodes>
          <leafValues>
            -1.4069700241088867e-01 5.1335412263870239e-01</leafValues></_>
        <_>
          <internalNodes>
            0 -1 286 -6.9788843393325806e-03</internalNodes>
          <leafValues>
            -8.7363415956497192e-01 8.9167185127735138e-02</leafValues></_>
        <_>
          <internalNodes>
            0 -1 223 5.7428419589996338e-02</internalNodes>
          <leafValues>
            -1.4258472621440887e-01 4.8161923885345459e-01</leafValues></_>
        <_>
          <internalNodes>
            0 -1 2 7.5240563601255417e-03</internalNodes>
          <leafValues>
            -1.3769432902336121e-01 6.4173364639282227e-01</leafValues></_>
        <_>
          <internalNodes>
            0 -1 33 -3.3783264458179474e-02</internalNodes>
          <leafValues>
            3.6917409300804138e-01 -1.3949833810329437e-01</leafValues></_>
        <_>
          <internalNodes>
            0 -1 133 -2.1834096405655146e-03</internalNodes>
          <leafValues>
            3.7467846274375916e-01 -1.5791109204292297e-01</leafValues></_>
        <_>
          <internalNodes>
            0 -1 142 -1.7807856202125549e-02</internalNodes>
          <leafValues>
            6.1746722459793091e-01 -8.6408637464046478e-02</leafValues></_>
        <_>
          <internalNodes>
            0 -1 202 1.2925997725687921e-04</internalNodes>
          <leafValues>
            1.4212991297245026e-01 -4.0249240398406982e-01</leafValues></_>
        <_>
          <internalNodes>
            0 -1 201 2.0433400641195476e-04</internalNodes>
          <leafValues>
            1.2968873977661133e-01 -4.4846829771995544e-01</leafValues></_>
        <_>
          <internalNodes>
            0 -1 89 1.2500878423452377e-02</internalNodes>
          <leafValues>
            -1.2829373776912689e-01 4.1514992713928223e-01</leafValues></_>
        <_>
          <internalNodes>
            0 -1 123 -3.5210568457841873e-03</internalNodes>
          <leafValues>
            3.2018834352493286e-01 -2.0841155946254730e-01</leafValues></_>
        <_>
          <internalNodes>
            0 -1 164 -7.5787403620779514e-03</internalNodes>
          <leafValues>
            5.4864329099655151e-01 -9.5695920288562775e-02</leafValues></_>
        <_>
          <internalNodes>
            0 -1 102 -6.3605055212974548e-02</internalNodes>
          <leafValues>
            -1.0968994349241257e-01 4.3693980574607849e-01</leafValues></_>
        <_>
          <internalNodes>
            0 -1 312 -1.4462770894169807e-02</internalNodes>
          <leafValues>
            5.1033681631088257e-01 -1.0572613775730133e-01</leafValues></_>
        <_>
          <internalNodes>
            0 -1 4 -4.5738793909549713e-02</internalNodes>
          <leafValues>
            3.5533049702644348e-01 -1.5162996947765350e-01</leafValues></_>
        <_>
          <internalNodes>
            0 -1 21 6.2200361862778664e-03</internalNodes>
          <leafValues>
            -1.6039146482944489e-01 4.2015090584754944e-01</leafValues></_></weakClassifiers></_>
    <!-- stage 2 -->
    <_>
      <maxWeakCount>27</maxWeakCount>
      <stageThreshold>-1.4872941970825195e+00</stageThreshold>
      <weakClassifiers>
        <_>
          <internalNodes>
            0 -1 159 -1.0520651936531067e-01</internalNodes>
          <leafValues>
            5.1898735761642456e-01 -4.8916408419609070e-01</leafValues></_>
        <_>
          <internalNodes>
            0 -1 23 -8.0876067280769348e-02</internalNodes>
          <leafValues>
            4.8297211527824402e-01 -1.5731215476989746e-01</leafValues></_>
        <_>
          <internalNodes>
            0 -1 216 -5.2447251975536346e-02</internalNodes>
          <leafValues>
            6.6457664966583252e-01 -1.1275549232959747e-01</leafValues></_>
        <_>
          <internalNodes>
            0 -1 306 -2.3598805069923401e-02</internalNodes>
          <leafValues>
            -6.3204187154769897e-01 1.0870146751403809e-01</leafValues></_>
        <_>
          <internalNodes>
            0 -1 232 3.4876924008131027e-02</internalNodes>
          <leafValues>
            -1.0865183174610138e-01 4.2148271203041077e-01</leafValues></_>
        <_>
          <internalNodes>
            0 -1 52 5.1258053630590439e-02</internalNodes>
          <leafValues>
            -1.2451974302530289e-01 4.6452867984771729e-01</leafValues></_>
        <_>
          <internalNodes>
            0 -1 30 -9.9854469299316406e-03</internalNodes>
          <leafValues>
            3.9359304308891296e-01 -1.2908184528350830e-01</leafValues></_>
        <_>
          <internalNodes>
            0 -1 11 1.7040718346834183e-02</internalNodes>
          <leafValues>
            -1.4283108711242676e-01 4.5821788907051086e-01</leafValues></_>
        <_>
          <internalNodes>
            0 -1 110 -1.3213083148002625e-02</internalNodes>
          <leafValues>
            5.0858891010284424e-01 -9.9565610289573669e-02</leafValues></_>
        <_>
          <internalNodes>
            0 -1 134 -1.2712705938611180e-04</internalNodes>
          <leafValues>
            -4.0280699729919434e-01 1.2807649374008179e-01</leafValues></_>
        <_>
          <internalNodes>
            0 -1 134 1.6391684766858816e-04</internalNodes>
          <leafValues>
            1.4505150914192200e-01 -3.8856551051139832e-01</leafValues></_>
        <_>
          <internalNodes>
            0 -1 318 5.1177265122532845e-03</internalNodes>
          <leafValues>
            -1.0771011561155319e-01 5.3806519508361816e-01</leafValues></_>
        <_>
          <internalNodes>
            0 -1 288 -1.6095299273729324e-02</internalNodes>
          <leafValues>
            3.6834648251533508e-01 -1.4731743931770325e-01</leafValues></_>
        <_>
          <internalNodes>
            0 -1 107 3.4406401216983795e-02</internalNodes>
          <leafValues>
            -1.8505941331386566e-01 2.7627402544021606e-01</leafValues></_>
        <_>
          <internalNodes>
            0 -1 285 -9.2842499725520611e-04</internalNodes>
          <leafValues>
            2.5099033117294312e-01 -1.6898918151855469e-01</leafValues></_>
        <_>
          <internalNodes>
            0 -1 224 -4.7763902693986893e-04</internalNodes>
          <leafValues>
            -5.5964338779449463e-01 7.5936846435070038e-02</leafValues></_>
        <_>
          <internalNodes>
            0 -1 153 -1.8704373389482498e-02</internalNodes>
          <leafValues>
            4.1160532832145691e-01 -1.1405349522829056e-01</leafValues></_>
        <_>
          <internalNodes>
            0 -1 185 4.1769869625568390e-02</internalNodes>
          <leafValues>
            -8.8753320276737213e-02 4.7607734799385071e-01</leafValues></_>
        <_>
          <internalNodes>
            0 -1 68 -1.9552782177925110e-02</internalNodes>
          <leafValues>
            4.6037149429321289e-01 -1.1218851059675217e-01</leafValues></_>
        <_>
          <internalNodes>
            0 -1 267 -3.2191281206905842e-04</internalNodes>
          <leafValues>
            -4.6895501017570496e-01 9.9780090153217316e-02</leafValues></_>
        <_>
          <internalNodes>
            0 -1 176 6.4054655376821756e-04</internalNodes>
          <leafValues>
            6.0446370393037796e-02 -6.2203305959701538e-01</leafValues></_>
        <_>
          <internalNodes>
            0 -1 125 8.2602379843592644e-03</internalNodes>
          <leafValues>
            -9.2366546392440796e-02 4.7469559311866760e-01</leafValues></_>
        <_>
          <internalNodes>
            0 -1 128 -6.6548481583595276e-02</internalNodes>
          <leafValues>
            -9.0068578720092773e-01 4.9117002636194229e-02</leafValues></_>
        <_>
          <internalNodes>
            0 -1 319 -8.0499928444623947e-03</internalNodes>
          <leafValues>
            6.2705922126770020e-01 -8.0904990434646606e-02</leafValues></_>
        <_>
          <internalNodes>
            0 -1 44 -4.5730948448181152e-02</internalNodes>
          <leafValues>
            3.6135506629943848e-01 -1.2436026334762573e-01</leafValues></_>
        <_>
          <internalNodes>
            0 -1 9 4.5181162655353546e-02</internalNodes>
          <leafValues>
            -1.0235632956027985e-01 4.6162497997283936e-01</leafValues></_>
        <_>
          <internalNodes>
            0 -1 305 6.3828122802078724e-04</internalNodes>
          <leafValues>
            7.1881487965583801e-02 -5.9914368391036987e-01</leafValues></_></weakClassifiers></_>
    <!-- stage 3 -->
    <_>
      <maxWeakCount>28</maxWeakCount>
      <stageThreshold>-1.3719415664672852e+00</stageThreshold>
      <weakClassifiers>
        <_>
          <internalNodes>
            0 -1 248 1.7132617533206940e-02</internalNodes>
          <leafValues>
            -4.8818582296371460e-01 2.9528537392616272e-01</leafValues></_>
        <_>
          <internalNodes>
            0 -1 259 -1.1037718504667282e-02</internalNodes>
          <leafValues>
            3.6873888969421387e-01 -1.9101646542549133e-01</leafValues></_>
        <_>
          <internalNodes>
            0 -1 311 9.8554315045475960e-03</internalNodes>
          <leafValues>
            -1.6082505881786346e-01 4.3686532974243164e-01</leafValues></_>
        <_>
          <internalNodes>
            0 -1 316 -3.5554983187466860e-03</internalNodes>
          <leafValues>
            5.3391510248184204e-01 -1.1410738527774811e-01</leafValues></_>
        <_>
          <internalNodes>
            0 -1 74 -7.0889526978135109e-03</internalNodes>
          <leafValues>
            4.6253889799118042e-01 -1.1623285710811615e-01</leafValues></_>
        <_>
          <internalNodes>
            0 -1 69 -3.5158421844244003e-02</internalNodes>
          <leafValues>
            3.6317649483680725e-01 -1.2225156277418137e-01</leafValues></_>
        <_>
          <internalNodes>
            0 -1 19 5.7064932771027088e-03</internalNodes>
          <leafValues>
            -8.8268123567104340e-02 5.7367390394210815e-01</leafValues></_>
        <_>
          <internalNodes>
            0 -1 20 -2.5114472955465317e-03</internalNodes>
          <leafValues>
            3.7456551194190979e-01 -1.3046875596046448e-01</leafValues></_>
        <_>
          <internalNodes>
            0 -1 168 -8.6030733655206859e-05</internalNodes>
          <leafValues>
            -3.4169840812683105e-01 1.3541483879089355e-01</leafValues></_>
        <_>
          <internalNodes>
            0 -1 168 9.1010602773167193e-05</internalNodes>
          <leafValues>
            1.7903257906436920e-01 -3.4181445837020874e-01</leafValues></_>
        <_>
          <internalNodes>
            0 -1 241 4.5076981186866760e-03</internalNodes>
          <leafValues>
            -8.0962955951690674e-02 5.3780484199523926e-01</leafValues></_>
        <_>
          <internalNodes>
            0 -1 254 -1.1461336165666580e-02</internalNodes>
          <leafValues>
            3.3324825763702393e-01 -1.5009844303131104e-01</leafValues></_>
        <_>
          <internalNodes>
            0 -1 173 3.2928292639553547e-03</internalNodes>
          <leafValues>
            -8.9916802942752838e-02 4.2216640710830688e-01</leafValues></_>
        <_>
          <internalNodes>
            0 -1 49 5.5013224482536316e-04</internalNodes>
          <leafValues>
            7.1671411395072937e-02 -6.5448498725891113e-01</leafValues></_>
        <_>
          <internalNodes>
            0 -1 198 8.2255508750677109e-03</internalNodes>
          <leafValues>
            -8.4778539836406708e-02 5.1786494255065918e-01</leafValues></_>
        <_>
          <internalNodes>
            0 -1 90 1.0844486951828003e-01</internalNodes>
          <leafValues>
            7.0880092680454254e-02 -5.9608423709869385e-01</leafValues></_>
        <_>
          <internalNodes>
            0 -1 80 -9.9511984735727310e-03</internalNodes>
          <leafValues>
            2.8715708851814270e-01 -1.3448573648929596e-01</leafValues></_>
        <_>
          <internalNodes>
            0 -1 280 -4.1703237220644951e-03</internalNodes>
          <leafValues>
            -3.0336117744445801e-01 1.2586072087287903e-01</leafValues></_>
        <_>
          <internalNodes>
            0 -1 250 -2.3894812911748886e-02</internalNodes>
          <leafValues>
            4.0008410811424255e-01 -1.0139083862304688e-01</leafValues></_>
        <_>
          <internalNodes>
            0 -1 278 2.7164332568645477e-02</internalNodes>
          <leafValues>
            -9.7242653369903564e-02 4.4893616437911987e-01</leafValues></_>
        <_>
          <internalNodes>
            0 -1 121 4.7964483499526978e-02</internalNodes>
          <leafValues>
            -1.0091321915388107e-01 4.1189727187156677e-01</leafValues></_>
        <_>
          <internalNodes>
            0 -1 99 -3.5318143665790558e-02</internalNodes>
          <leafValues>
            2.3807464540004730e-01 -1.6471028327941895e-01</leafValues></_>
        <_>
          <internalNodes>
            0 -1 88 2.4984296411275864e-02</internalNodes>
          <leafValues>
            -9.2975072562694550e-02 3.9693951606750488e-01</leafValues></_>
        <_>
          <internalNodes>
            0 -1 222 1.8331444880459458e-04</internalNodes>
          <leafValues>
            1.0266631841659546e-01 -3.8288378715515137e-01</leafValues></_>
        <_>
          <internalNodes>
            0 -1 145 1.4568258076906204e-02</internalNodes>
          <leafValues>
            -1.0067606717348099e-01 3.9075604081153870e-01</leafValues></_>
        <_>
          <internalNodes>
            0 -1 116 1.0053485631942749e-02</internalNodes>
          <leafValues>
            -9.0904742479324341e-02 4.6338102221488953e-01</leafValues></_>
        <_>
          <internalNodes>
            0 -1 226 -1.9689915701746941e-02</internalNodes>
          <leafValues>
            3.1193786859512329e-01 -1.1077255755662918e-01</leafValues></_>
        <_>
          <internalNodes>
            0 -1 296 7.4274591170251369e-03</internalNodes>
          <leafValues>
            -6.4724691212177277e-02 5.3127557039260864e-01</leafValues></_></weakClassifiers></_>
    <!-- stage 4 -->
    <_>
      <maxWeakCount>37</maxWeakCount>
      <stageThreshold>-1.4071880578994751e+00</stageThreshold>
      <weakClassifiers>
        <_>
          <internalNodes>
            0 -1 138 -9.2903904616832733e-02</internalNodes>
          <leafValues>
            4.7555556893348694e-01 -4.5121493935585022e-01</leafValues></_>
        <_>
          <internalNodes>
            0 -1 166 2.0185906905680895e-03</internalNodes>
          <leafValues>
            -2.2845524549484253e-01 3.1694209575653076e-01</leafValues></_>
        <_>
          <internalNodes>
            0 -1 204 -5.4791834205389023e-02</internalNodes>
          <leafValues>
            9.8909385502338409e-02 -7.1316283941268921e-01</leafValues></_>
        <_>
          <internalNodes>
            0 -1 0 -7.4560954235494137e-03</internalNodes>
          <leafValues>
            4.3140208721160889e-01 -7.8912667930126190e-02</leafValues></_>
        <_>
          <internalNodes>
            0 -1 8 5.7499948889017105e-03</internalNodes>
          <leafValues>
            -1.3863138854503632e-01 4.7264388203620911e-01</leafValues></_>
        <_>
          <internalNodes>
            0 -1 205 -8.3687412552535534e-04</internalNodes>
          <leafValues>
            -3.8741165399551392e-01 1.3208448886871338e-01</leafValues></_>
        <_>
          <internalNodes>
            0 -1 177 -3.3430696930736303e-03</internalNodes>
          <leafValues>
            4.0752482414245605e-01 -1.0132409632205963e-01</leafValues></_>
        <_>
          <internalNodes>
            0 -1 203 1.4876401983201504e-03</internalNodes>
          <leafValues>
            1.1806878447532654e-01 -4.2835998535156250e-01</leafValues></_>
        <_>
          <internalNodes>
            0 -1 225 1.3691306114196777e-02</internalNodes>
          <leafValues>
            -9.9689677357673645e-02 4.6640798449516296e-01</leafValues></_>
        <_>
          <internalNodes>
            0 -1 39 1.9490370526909828e-02</internalNodes>
          <leafValues>
            -2.1098755300045013e-01 1.7391175031661987e-01</leafValues></_>
        <_>
          <internalNodes>
            0 -1 247 -8.9314999058842659e-05</internalNodes>
          <leafValues>
            -2.9571449756622314e-01 1.1829783767461777e-01</leafValues></_>
        <_>
          <internalNodes>
            0 -1 325 3.1526333186775446e-03</internalNodes>
          <leafValues>
            -8.0918677151203156e-02 3.9424535632133484e-01</leafValues></_>
        <_>
          <internalNodes>
            0 -1 310 -9.5433834940195084e-03</internalNodes>
          <leafValues>
            3.5793259739875793e-01 -1.2762193381786346e-01</leafValues></_>
        <_>
          <internalNodes>
            0 -1 15 -6.9925054907798767e-02</internalNodes>
          <leafValues>
            3.2450667023658752e-01 -1.0664326697587967e-01</leafValues></_>
        <_>
          <internalNodes>
            0 -1 122 1.0769931972026825e-01</internalNodes>
          <leafValues>
            -1.1332885921001434e-01 4.1483229398727417e-01</leafValues></_>
        <_>
          <internalNodes>
            0 -1 38 -9.2099905014038086e-03</internalNodes>
          <leafValues>
            2.8755980730056763e-01 -1.3087166845798492e-01</leafValues></_>
        <_>
          <internalNodes>
            0 -1 42 -4.7507548332214355e-01</internalNodes>
          <leafValues>
            -5.8421182632446289e-01 5.9809282422065735e-02</leafValues></_>
        <_>
          <internalNodes>
            0 -1 85 -3.7556523457169533e-03</internalNodes>
          <leafValues>
            4.4082501530647278e-01 -8.2094892859458923e-02</leafValues></_>
        <_>
          <internalNodes>
            0 -1 109 2.1616154117509723e-04</internalNodes>
          <leafValues>
            1.0112053155899048e-01 -3.9221400022506714e-01</leafValues></_>
        <_>
          <internalNodes>
            0 -1 274 -8.5586623754352331e-05</internalNodes>
          <leafValues>
            -2.8540536761283875e-01 1.0536398738622665e-01</leafValues></_>
        <_>
          <internalNodes>
            0 -1 127 7.0391158806160092e-04</internalNodes>
          <leafValues>
            -1.1551360785961151e-01 2.6920154690742493e-01</leafValues></_>
        <_>
          <internalNodes>
            0 -1 195 2.9476718045771122e-03</internalNodes>
          <leafValues>
            -1.2800851464271545e-01 2.6754057407379150e-01</leafValues></_>
        <_>
          <internalNodes>
            0 -1 196 -1.4353916049003601e-03</internalNodes>
          <leafValues>
            3.1508982181549072e-01 -1.1568207293748856e-01</leafValues></_>
        <_>
          <internalNodes>
            0 -1 228 1.5229264274239540e-02</internalNodes>
          <leafValues>
            -1.2990714609622955e-01 2.7328163385391235e-01</leafValues></_>
        <_>
          <internalNodes>
            0 -1 258 1.8511256203055382e-03</internalNodes>
          <leafValues>
            -1.2404377013444901e-01 2.8016933798789978e-01</leafValues></_>
        <_>
          <internalNodes>
            0 -1 140 2.0179876592010260e-03</internalNodes>
          <leafValues>
            -1.4182600378990173e-01 2.5338318943977356e-01</leafValues></_>
        <_>
          <internalNodes>
            0 -1 114 -1.3498403131961823e-01</internalNodes>
          <leafValues>
            -6.3633173704147339e-01 5.8163907378911972e-02</leafValues></_>
        <_>
          <internalNodes>
            0 -1 245 -8.6334499064832926e-04</internalNodes>
          <leafValues>
            -4.1869255900382996e-01 6.7325904965400696e-02</leafValues></_>
        <_>
          <internalNodes>
            0 -1 298 1.2658236548304558e-02</internalNodes>
          <leafValues>
            -1.2455351650714874e-01 2.5392499566078186e-01</leafValues></_>
        <_>
          <internalNodes>
            0 -1 304 -5.8163078501820564e-03</internalNodes>
          <leafValues>
            2.8822776675224304e-01 -1.0377592593431473e-01</leafValues></_>
        <_>
          <internalNodes>
            0 -1 179 -4.3363095028325915e-04</internalNodes>
          <leafValues>
            -3.0410894751548767e-01 1.0074435174465179e-01</leafValues></_>
        <_>
          <internalNodes>
            0 -1 130 1.3860319741070271e-03</internalNodes>
          <leafValues>
            -1.0266034305095673e-01 3.1424874067306519e-01</leafValues></_>
        <_>
          <internalNodes>
            0 -1 41 -6.6224264446645975e-04</internalNodes>
          <leafValues>
            -5.9300535917282104e-01 5.5934853851795197e-02</leafValues></_>
        <_>
          <internalNodes>
            0 -1 174 3.9108801865950227e-04</internalNodes>
          <leafValues>
            -1.5345896780490875e-01 2.1386714279651642e-01</leafValues></_>
        <_>
          <internalNodes>
            0 -1 82 -3.0287803383544087e-05</internalNodes>
          <leafValues>
            1.7744548618793488e-01 -1.8580122292041779e-01</leafValues></_>
        <_>
          <internalNodes>
            0 -1 156 -1.0190448665525764e-04</internalNodes>
          <leafValues>
            -3.0639177560806274e-01 9.8476566374301910e-02</leafValues></_>
        <_>
          <internalNodes>
            0 -1 36 5.4820582270622253e-02</internalNodes>
          <leafValues>
            -7.6591603457927704e-02 4.2378336191177368e-01</leafValues></_></weakClassifiers></_>
    <!-- stage 5 -->
    <_>
      <maxWeakCount>36</maxWeakCount>
      <stageThreshold>-1.4125823974609375e+00</stageThreshold>
      <weakClassifiers>
        <_>
          <internalNodes>
            0 -1 76 -1.8399193882942200e-02</internalNodes>
          <leafValues>
            3.5574230551719666e-01 -4.8250097036361694e-01</leafValues></_>
        <_>
          <internalNodes>
            0 -1 276 2.6759507600218058e-03</internalNodes>
          <leafValues>
            -1.6558608412742615e-01 4.7085493803024292e-01</leafValues></_>
        <_>
          <internalNodes>
            0 -1 263 -5.4402127861976624e-03</internalNodes>
          <leafValues>
            3.6080631613731384e-01 -1.5191082656383514e-01</leafValues></_>
        <_>
          <internalNodes>
            0 -1 65 7.8660240396857262e-03</internalNodes>
          <leafValues>
            -7.4209868907928467e-02 5.5421745777130127e-01</leafValues></_>
        <_>
          <internalNodes>
            0 -1 244 1.3564876280725002e-04</internalNodes>
          <leafValues>
            1.1180333793163300e-01 -3.6239796876907349e-01</leafValues></_>
        <_>
          <internalNodes>
            0 -1 51 -1.5779910609126091e-03</internalNodes>
          <leafValues>
            4.8802033066749573e-01 -4.7495491802692413e-02</leafValues></_>
        <_>
          <internalNodes>
            0 -1 211 7.1285478770732880e-04</internalNodes>
          <leafValues>
            -1.1887201666831970e-01 3.2480770349502563e-01</leafValues></_>
        <_>
          <internalNodes>
            0 -1 236 -2.0995381055399776e-04</internalNodes>
          <leafValues>
            -2.7796223759651184e-01 1.2998357415199280e-01</leafValues></_>
        <_>
          <internalNodes>
            0 -1 87 1.1499025858938694e-03</internalNodes>
          <leafValues>
            -1.4635193347930908e-01 2.2714167833328247e-01</leafValues></_>
        <_>
          <internalNodes>
            0 -1 113 8.7661435827612877e-03</internalNodes>
          <leafValues>
            -1.0580777376890182e-01 3.2568043470382690e-01</leafValues></_>
        <_>
          <internalNodes>
            0 -1 17 -7.1452567353844643e-03</internalNodes>
          <leafValues>
            -8.1991374492645264e-01 4.3077621608972549e-02</leafValues></_>
        <_>
          <internalNodes>
            0 -1 309 9.8121520131826401e-03</internalNodes>
          <leafValues>
            -9.9538572132587433e-02 3.3805784583091736e-01</leafValues></_>
        <_>
          <internalNodes>
            0 -1 322 -1.0344521142542362e-03</internalNodes>
          <leafValues>
            3.1610855460166931e-01 -1.4216560125350952e-01</leafValues></_>
        <_>
          <internalNodes>
            0 -1 167 3.0671947752125561e-04</internalNodes>
          <leafValues>
            7.5796127319335938e-02 -4.4435036182403564e-01</leafValues></_>
        <_>
          <internalNodes>
            0 -1 265 1.0825325734913349e-03</internalNodes>
          <leafValues>
            -1.0641095787286758e-01 3.1513836979866028e-01</leafValues></_>
        <_>
          <internalNodes>
            0 -1 293 8.2813929766416550e-03</internalNodes>
          <leafValues>
            -1.0115175694227219e-01 2.8077635169029236e-01</leafValues></_>
        <_>
          <internalNodes>
            0 -1 234 -1.9829832017421722e-03</internalNodes>
          <leafValues>
            -7.3346310853958130e-01 4.5899454504251480e-02</leafValues></_>
        <_>
          <internalNodes>
            0 -1 29 1.2197321280837059e-02</internalNodes>
          <leafValues>
            -7.2660006582736969e-02 5.1025694608688354e-01</leafValues></_>
        <_>
          <internalNodes>
            0 -1 72 -2.2622616961598396e-02</internalNodes>
          <leafValues>
            2.7499333024024963e-01 -1.2119402736425400e-01</leafValues></_>
        <_>
          <internalNodes>
            0 -1 63 -2.5430778041481972e-03</internalNodes>
          <leafValues>
            2.7212119102478027e-01 -1.2199888378381729e-01</leafValues></_>
        <_>
          <internalNodes>
            0 -1 47 -1.0949743445962667e-03</internalNodes>
          <leafValues>
            -6.0592401027679443e-01 6.4995326101779938e-02</leafValues></_>
        <_>
          <internalNodes>
            0 -1 246 -1.1843651736853644e-04</internalNodes>
          <leafValues>
            -2.5787544250488281e-01 1.2173442542552948e-01</leafValues></_>
        <_>
          <internalNodes>
            0 -1 81 9.0611670166254044e-03</internalNodes>
          <leafValues>
            -7.0642560720443726e-02 5.0375473499298096e-01</leafValues></_>
        <_>
          <internalNodes>
            0 -1 27 -2.8826221823692322e-03</internalNodes>
          <leafValues>
            2.9550126194953918e-01 -1.1441963165998459e-01</leafValues></_>
        <_>
          <internalNodes>
            0 -1 106 -2.9810338746756315e-03</internalNodes>
          <leafValues>
            2.7794221043586731e-01 -1.1719377338886261e-01</leafValues></_>
        <_>
          <internalNodes>
            0 -1 273 3.8311481475830078e-03</internalNodes>
          <leafValues>
            -1.4762385189533234e-01 2.2767260670661926e-01</leafValues></_>
        <_>
          <internalNodes>
            0 -1 275 -5.1730934530496597e-02</internalNodes>
          <leafValues>
            4.4740423560142517e-01 -7.4596308171749115e-02</leafValues></_>
        <_>
          <internalNodes>
            0 -1 184 -2.4576194584369659e-02</internalNodes>
          <leafValues>
            2.9658207297325134e-01 -1.1687826365232468e-01</leafValues></_>
        <_>
          <internalNodes>
            0 -1 201 -1.8884542805608362e-04</internalNodes>
          <leafValues>
            -3.5550531744956970e-01 9.9143743515014648e-02</leafValues></_>
        <_>
          <internalNodes>
            0 -1 143 2.4506952613592148e-03</internalNodes>
          <leafValues>
            -1.1345228552818298e-01 3.0046781897544861e-01</leafValues></_>
        <_>
          <internalNodes>
            0 -1 101 -2.6969767641276121e-03</internalNodes>
          <leafValues>
            2.7243250608444214e-01 -1.0636605322360992e-01</leafValues></_>
        <_>
          <internalNodes>
            0 -1 75 -2.0431060343980789e-02</internalNodes>
          <leafValues>
            4.1407606005668640e-01 -8.5607267916202545e-02</leafValues></_>
        <_>
          <internalNodes>
            0 -1 83 9.4799330690875649e-04</internalNodes>
          <leafValues>
            4.5678026974201202e-02 -7.4469035863876343e-01</leafValues></_>
        <_>
          <internalNodes>
            0 -1 191 -8.0362020526081324e-04</internalNodes>
          <leafValues>
            -7.1600806713104248e-01 3.1542532145977020e-02</leafValues></_>
        <_>
          <internalNodes>
            0 -1 292 9.3821771442890167e-03</internalNodes>
          <leafValues>
            -1.0142438113689423e-01 3.2743403315544128e-01</leafValues></_>
        <_>
          <internalNodes>
            0 -1 243 -2.5413499679416418e-04</internalNodes>
          <leafValues>
            2.2834946215152740e-01 -1.3235352933406830e-01</leafValues></_></weakClassifiers></_>
    <!-- stage 6 -->
    <_>
      <maxWeakCount>45</maxWeakCount>
      <stageThreshold>-1.3432455062866211e+00</stageThreshold>
      <weakClassifiers>
        <_>
          <internalNodes>
            0 -1 137 -4.4212430715560913e-02</internalNodes>
          <leafValues>
            1.1260504275560379e-01 -5.0629067420959473e-01</leafValues></_>
        <_>
          <internalNodes>
            0 -1 235 -9.4798611826263368e-05</internalNodes>
          <leafValues>
            -3.6555945873260498e-01 8.0558069050312042e-02</leafValues></_>
        <_>
          <internalNodes>
            0 -1 277 4.7733746469020844e-03</internalNodes>
          <leafValues>
            -9.9544011056423187e-02 3.8968306779861450e-01</leafValues></_>
        <_>
          <internalNodes>
            0 -1 235 6.8455279688350856e-05</internalNodes>
          <leafValues>
            1.2492304295301437e-01 -2.9947879910469055e-01</leafValues></_>
        <_>
          <internalNodes>
            0 -1 79 -4.7164876013994217e-03</internalNodes>
          <leafValues>
            -5.2835300564765930e-02 6.3438773155212402e-01</leafValues></_>
        <_>
          <internalNodes>
            0 -1 18 5.9824013151228428e-03</internalNodes>
          <leafValues>
            -6.8304508924484253e-02 4.8298633098602295e-01</leafValues></_>
        <_>
          <internalNodes>
            0 -1 104 -3.2131604850292206e-02</internalNodes>
          <leafValues>
            3.3499816060066223e-01 -8.5563428699970245e-02</leafValues></_>
        <_>
          <internalNodes>
            0 -1 301 2.3991116322577000e-03</internalNodes>
          <leafValues>
            -5.5921874940395355e-02 4.6544516086578369e-01</leafValues></_>
        <_>
          <internalNodes>
            0 -1 34 -1.1584166437387466e-02</internalNodes>
          <leafValues>
            2.6997458934783936e-01 -1.1028574407100677e-01</leafValues></_>
        <_>
          <internalNodes>
            0 -1 167 -1.3128345017321408e-04</internalNodes>
          <leafValues>
            -2.7849334478378296e-01 1.3342788815498352e-01</leafValues></_>
        <_>
          <internalNodes>
            0 -1 53 -2.0632059313356876e-03</internalNodes>
          <leafValues>
            2.3769457638263702e-01 -1.3604556024074554e-01</leafValues></_>
        <_>
          <internalNodes>
            0 -1 253 1.3626199215650558e-03</internalNodes>
          <leafValues>
            -6.2852397561073303e-02 4.2342454195022583e-01</leafValues></_>
        <_>
          <internalNodes>
            0 -1 252 5.9637997765094042e-04</internalNodes>
          <leafValues>
            -6.7075893282890320e-02 4.1530278325080872e-01</leafValues></_>
        <_>
          <internalNodes>
            0 -1 40 -3.7011323729529977e-04</internalNodes>
          <leafValues>
            -4.5614084601402283e-01 7.3542237281799316e-02</leafValues></_>
        <_>
          <internalNodes>
            0 -1 50 1.2579225003719330e-03</internalNodes>
          <leafValues>
            4.1474029421806335e-02 -5.3022295236587524e-01</leafValues></_>
        <_>
          <internalNodes>
            0 -1 324 -4.8889624886214733e-03</internalNodes>
          <leafValues>
            4.7752609848976135e-01 -6.3957512378692627e-02</leafValues></_>
        <_>
          <internalNodes>
            0 -1 314 1.8105311319231987e-03</internalNodes>
          <leafValues>
            -1.2414984405040741e-01 2.5108030438423157e-01</leafValues></_>
        <_>
          <internalNodes>
            0 -1 333 -3.1022605253383517e-04</internalNodes>
          <leafValues>
            -3.4762632846832275e-01 8.2391537725925446e-02</leafValues></_>
        <_>
          <internalNodes>
            0 -1 163 -2.7495990507304668e-03</internalNodes>
          <leafValues>
            2.5676017999649048e-01 -1.0412201285362244e-01</leafValues></_>
        <_>
          <internalNodes>
            0 -1 237 6.0989275574684143e-02</internalNodes>
          <leafValues>
            -1.0153141617774963e-01 2.5029098987579346e-01</leafValues></_>
        <_>
          <internalNodes>
            0 -1 207 -1.3439461588859558e-01</internalNodes>
          <leafValues>
            5.0760704278945923e-01 -6.5809838473796844e-02</leafValues></_>
        <_>
          <internalNodes>
            0 -1 173 4.0794117376208305e-03</internalNodes>
          <leafValues>
            -7.5130626559257507e-02 3.4260225296020508e-01</leafValues></_>
        <_>
          <internalNodes>
            0 -1 112 -1.4023144729435444e-02</internalNodes>
          <leafValues>
            4.6398991346359253e-01 -5.5748626589775085e-02</leafValues></_>
        <_>
          <internalNodes>
            0 -1 54 -1.3640559278428555e-02</internalNodes>
          <leafValues>
            2.5132510066032410e-01 -1.1422923207283020e-01</leafValues></_>
        <_>
          <internalNodes>
            0 -1 188 -1.3309129280969501e-04</internalNodes>
          <leafValues>
            -3.2831075787544250e-01 8.7898664176464081e-02</leafValues></_>
        <_>
          <internalNodes>
            0 -1 48 -7.9725845716893673e-04</internalNodes>
          <leafValues>
            -4.3387395143508911e-01 5.9339325875043869e-02</leafValues></_>
        <_>
          <internalNodes>
            0 -1 149 -4.0622276719659567e-04</internalNodes>
          <leafValues>
            2.3490273952484131e-01 -1.1103512346744537e-01</leafValues></_>
        <_>
          <internalNodes>
            0 -1 43 -1.6513369046151638e-03</internalNodes>
          <leafValues>
            -3.4335088729858398e-01 7.6428972184658051e-02</leafValues></_>
        <_>
          <internalNodes>
            0 -1 91 1.3868452515453100e-03</internalNodes>
          <leafValues>
            -1.0786059498786926e-01 2.6650679111480713e-01</leafValues></_>
        <_>
          <internalNodes>
            0 -1 180 -4.1581130062695593e-05</internalNodes>
          <leafValues>
            -2.0610193908214569e-01 1.2466512620449066e-01</leafValues></_>
        <_>
          <internalNodes>
            0 -1 147 -2.1206350065767765e-03</internalNodes>
          <leafValues>
            2.6020953059196472e-01 -1.0432258248329163e-01</leafValues></_>
        <_>
          <internalNodes>
            0 -1 158 3.8894605822861195e-03</internalNodes>
          <leafValues>
            6.8252645432949066e-02 -3.8686633110046387e-01</leafValues></_>
        <_>
          <internalNodes>
            0 -1 193 -1.1348797008395195e-02</internalNodes>
          <leafValues>
            3.3883652091026306e-01 -7.9495429992675781e-02</leafValues></_>
        <_>
          <internalNodes>
            0 -1 217 -4.1213652002625167e-04</internalNodes>
          <leafValues>
            1.7942458391189575e-01 -1.7755271494388580e-01</leafValues></_>
        <_>
          <internalNodes>
            0 -1 132 2.1478028502315283e-03</internalNodes>
          <leafValues>
            -1.2216745316982269e-01 2.3697885870933533e-01</leafValues></_>
        <_>
          <internalNodes>
            0 -1 175 -6.4640068449079990e-03</internalNodes>
          <leafValues>
            -6.5963304042816162e-01 4.0530137717723846e-02</leafValues></_>
        <_>
          <internalNodes>
            0 -1 117 -1.0485306847840548e-03</internalNodes>
          <leafValues>
            2.1923519670963287e-01 -1.2327704578638077e-01</leafValues></_>
        <_>
          <internalNodes>
            0 -1 60 1.0156850516796112e-01</internalNodes>
          <leafValues>
            -1.0046762973070145e-01 2.6015299558639526e-01</leafValues></_>
        <_>
          <internalNodes>
            0 -1 124 8.7570108473300934e-02</internalNodes>
          <leafValues>
            5.0741136074066162e-02 -5.3129994869232178e-01</leafValues></_>
        <_>
          <internalNodes>
            0 -1 162 7.6777964830398560e-02</internalNodes>
          <leafValues>
            4.3351527303457260e-02 -5.6878715753555298e-01</leafValues></_>
        <_>
          <internalNodes>
            0 -1 186 2.6664044708013535e-03</internalNodes>
          <leafValues>
            3.3313307911157608e-02 -6.6845101118087769e-01</leafValues></_>
        <_>
          <internalNodes>
            0 -1 144 6.1810510233044624e-03</internalNodes>
          <leafValues>
            -6.1247084289789200e-02 4.6351543068885803e-01</leafValues></_>
        <_>
          <internalNodes>
            0 -1 233 -8.4025338292121887e-03</internalNodes>
          <leafValues>
            2.9789811372756958e-01 -8.4982991218566895e-02</leafValues></_>
        <_>
          <internalNodes>
            0 -1 295 -1.4316753367893398e-04</internalNodes>
          <leafValues>
            -2.6907786726951599e-01 9.8642915487289429e-02</leafValues></_>
        <_>
          <internalNodes>
            0 -1 313 -5.4728360846638680e-03</internalNodes>
          <leafValues>
            -4.3129032850265503e-01 6.3306979835033417e-02</leafValues></_></weakClassifiers></_>
    <!-- stage 7 -->
    <_>
      <maxWeakCount>45</maxWeakCount>
      <stageThreshold>-1.2945119142532349e+00</stageThreshold>
      <weakClassifiers>
        <_>
          <internalNodes>
            0 -1 74 -1.1087859049439430e-02</internalNodes>
          <leafValues>
            1.7934782803058624e-01 -4.6050551533699036e-01</leafValues></_>
        <_>
          <internalNodes>
            0 -1 7 -4.3336297385394573e-03</internalNodes>
          <leafValues>
            3.5853663086891174e-01 -1.2593640387058258e-01</leafValues></_>
        <_>
          <internalNodes>
            0 -1 12 6.6873063333332539e-03</internalNodes>
          <leafValues>
            -7.8141473233699799e-02 4.4530954957008362e-01</leafValues></_>
        <_>
          <internalNodes>
            0 -1 169 3.4204438328742981e-02</internalNodes>
          <leafValues>
            -6.5564475953578949e-02 4.9894902110099792e-01</leafValues></_>
        <_>
          <internalNodes>
            0 -1 242 -6.0411990853026509e-04</internalNodes>
          <leafValues>
            3.1547200679779053e-01 -1.0605350136756897e-01</leafValues></_>
        <_>
          <internalNodes>
            0 -1 135 -1.2064380280207843e-04</internalNodes>
          <leafValues>
            -2.8125718235969543e-01 1.1782405525445938e-01</leafValues></_>
        <_>
          <internalNodes>
            0 -1 135 7.2552458732388914e-05</internalNodes>
          <leafValues>
            2.3541620373725891e-01 -2.1065467596054077e-01</leafValues></_>
        <_>
          <internalNodes>
            0 -1 327 -5.9661996783688664e-04</internalNodes>
          <leafValues>
            -4.2965438961982727e-01 1.2373400852084160e-02</leafValues></_>
        <_>
          <internalNodes>
            0 -1 136 -4.2836427688598633e-02</internalNodes>
          <leafValues>
            5.7634368538856506e-02 -8.1924462318420410e-01</leafValues></_>
        <_>
          <internalNodes>
            0 -1 240 9.9060032516717911e-04</internalNodes>
          <leafValues>
            -1.1489327251911163e-01 2.5327455997467041e-01</leafValues></_>
        <_>
          <internalNodes>
            0 -1 70 -2.3161220550537109e-01</internalNodes>
          <leafValues>
            -5.1319628953933716e-01 5.6009363383054733e-02</leafValues></_>
        <_>
          <internalNodes>
            0 -1 182 4.7396472655236721e-04</internalNodes>
          <leafValues>
            5.9330582618713379e-02 -5.7331770658493042e-01</leafValues></_>
        <_>
          <internalNodes>
            0 -1 93 3.2083533704280853e-02</internalNodes>
          <leafValues>
            -1.3616900146007538e-01 2.2605288028717041e-01</leafValues></_>
        <_>
          <internalNodes>
            0 -1 108 -9.8771806806325912e-03</internalNodes>
          <leafValues>
            2.6447284221649170e-01 -1.0638576745986938e-01</leafValues></_>
        <_>
          <internalNodes>
            0 -1 262 -2.7958154678344727e-03</internalNodes>
          <leafValues>
            2.0775519311428070e-01 -1.2749527394771576e-01</leafValues></_>
        <_>
          <internalNodes>
            0 -1 282 7.5279427692294121e-03</internalNodes>
          <leafValues>
            -1.5361797809600830e-01 2.1549379825592041e-01</leafValues></_>
        <_>
          <internalNodes>
            0 -1 315 -6.9171432405710220e-03</internalNodes>
          <leafValues>
            3.9325869083404541e-01 -6.5598256886005402e-02</leafValues></_>
        <_>
          <internalNodes>
            0 -1 317 2.6544157881289721e-03</internalNodes>
          <leafValues>
            -7.5999706983566284e-02 4.0249255299568176e-01</leafValues></_>
        <_>
          <internalNodes>
            0 -1 238 1.4991298317909241e-01</internalNodes>
          <leafValues>
            4.6856824308633804e-02 -6.1562234163284302e-01</leafValues></_>
        <_>
          <internalNodes>
            0 -1 220 -1.8430322234053165e-04</internalNodes>
          <leafValues>
            -2.6285174489021301e-01 9.6839487552642822e-02</leafValues></_>
        <_>
          <internalNodes>
            0 -1 221 1.0741264122771099e-04</internalNodes>
          <leafValues>
            9.2030629515647888e-02 -2.9184600710868835e-01</leafValues></_>
        <_>
          <internalNodes>
            0 -1 86 -2.0702225156128407e-03</internalNodes>
          <leafValues>
            3.0947819352149963e-01 -9.7063891589641571e-02</leafValues></_>
        <_>
          <internalNodes>
            0 -1 141 -2.7924270834773779e-03</internalNodes>
          <leafValues>
            -7.2780442237854004e-01 4.2542979121208191e-02</leafValues></_>
        <_>
          <internalNodes>
            0 -1 16 8.1799238920211792e-02</internalNodes>
          <leafValues>
            6.5882675349712372e-02 -3.7197044491767883e-01</leafValues></_>
        <_>
          <internalNodes>
            0 -1 192 2.3540908470749855e-02</internalNodes>
          <leafValues>
            -1.1319410800933838e-01 2.4350701272487640e-01</leafValues></_>
        <_>
          <internalNodes>
            0 -1 326 1.8495379481464624e-03</internalNodes>
          <leafValues>
            3.0998174101114273e-02 -7.5298631191253662e-01</leafValues></_>
        <_>
          <internalNodes>
            0 -1 266 7.5570319313555956e-04</internalNodes>
          <leafValues>
            -9.5334991812705994e-02 3.0460190773010254e-01</leafValues></_>
        <_>
          <internalNodes>
            0 -1 35 4.9820175627246499e-04</internalNodes>
          <leafValues>
            6.2510177493095398e-02 -4.3838194012641907e-01</leafValues></_>
        <_>
          <internalNodes>
            0 -1 251 2.4875013623386621e-03</internalNodes>
          <leafValues>
            -8.7038196623325348e-02 3.4312683343887329e-01</leafValues></_>
        <_>
          <internalNodes>
            0 -1 283 1.2934627011418343e-03</internalNodes>
          <leafValues>
            -7.0634208619594574e-02 3.4559279680252075e-01</leafValues></_>
        <_>
          <internalNodes>
            0 -1 329 -9.0745824854820967e-04</internalNodes>
          <leafValues>
            -6.4223778247833252e-01 4.0257576853036880e-02</leafValues></_>
        <_>
          <internalNodes>
            0 -1 105 -8.3590624853968620e-04</internalNodes>
          <leafValues>
            2.5450438261032104e-01 -1.1213839054107666e-01</leafValues></_>
        <_>
          <internalNodes>
            0 -1 209 5.3819306194782257e-02</internalNodes>
          <leafValues>
            3.5026393830776215e-02 -6.7895281314849854e-01</leafValues></_>
        <_>
          <internalNodes>
            0 -1 332 9.6849858528003097e-04</internalNodes>
          <leafValues>
            2.7600705623626709e-02 -7.3364901542663574e-01</leafValues></_>
        <_>
          <internalNodes>
            0 -1 165 5.0519190728664398e-02</internalNodes>
          <leafValues>
            -1.1417125165462494e-01 2.2404506802558899e-01</leafValues></_>
        <_>
          <internalNodes>
            0 -1 261 5.6197410449385643e-03</internalNodes>
          <leafValues>
            -9.2036798596382141e-02 2.8203353285789490e-01</leafValues></_>
        <_>
          <internalNodes>
            0 -1 170 -6.5996823832392693e-03</internalNodes>
          <leafValues>
            5.8982837200164795e-01 -4.0772888809442520e-02</leafValues></_>
        <_>
          <internalNodes>
            0 -1 146 -1.9340575090609491e-04</internalNodes>
          <leafValues>
            -3.3745905756950378e-01 8.3508208394050598e-02</leafValues></_>
        <_>
          <internalNodes>
            0 -1 57 2.4458449333906174e-03</internalNodes>
          <leafValues>
            -7.7432587742805481e-02 3.5797798633575439e-01</leafValues></_>
        <_>
          <internalNodes>
            0 -1 56 -1.3723931042477489e-03</internalNodes>
          <leafValues>
            2.6388120651245117e-01 -1.2282007187604904e-01</leafValues></_>
        <_>
          <internalNodes>
            0 -1 61 -7.4121274519711733e-04</internalNodes>
          <leafValues>
            -3.8729280233383179e-01 6.2717728316783905e-02</leafValues></_>
        <_>
          <internalNodes>
            0 -1 129 4.8369687283411622e-04</internalNodes>
          <leafValues>
            -7.9259172081947327e-02 3.7663364410400391e-01</leafValues></_>
        <_>
          <internalNodes>
            0 -1 129 -5.5407028412446380e-04</internalNodes>
          <leafValues>
            3.4772351384162903e-01 -6.9787681102752686e-02</leafValues></_>
        <_>
          <internalNodes>
            0 -1 78 -5.0906728953123093e-02</internalNodes>
          <leafValues>
            -5.2413400262594223e-02 4.7271308302879333e-01</leafValues></_>
        <_>
          <internalNodes>
            0 -1 46 -1.3885679654777050e-03</internalNodes>
          <leafValues>
            -6.6422665119171143e-01 3.8020096719264984e-02</leafValues></_></weakClassifiers></_>
    <!-- stage 8 -->
    <_>
      <maxWeakCount>43</maxWeakCount>
      <stageThreshold>-1.2081301212310791e+00</stageThreshold>
      <weakClassifiers>
        <_>
          <internalNodes>
            0 -1 160 -5.4690051823854446e-02</internalNodes>
          <leafValues>
            2.6016259193420410e-01 -4.3858328461647034e-01</leafValues></_>
        <_>
          <internalNodes>
            0 -1 284 4.6304804272949696e-03</internalNodes>
          <leafValues>
            -1.2033852189779282e-01 3.7126648426055908e-01</leafValues></_>
        <_>
          <internalNodes>
            0 -1 73 -4.3802470900118351e-03</internalNodes>
          <leafValues>
            3.8817605376243591e-01 -8.3914421498775482e-02</leafValues></_>
        <_>
          <internalNodes>
            0 -1 66 7.5826257467269897e-02</internalNodes>
          <leafValues>
            -8.4628187119960785e-02 3.8419178128242493e-01</leafValues></_>
        <_>
          <internalNodes>
            0 -1 256 -2.4866221938282251e-03</internalNodes>
          <leafValues>
            -8.4342741966247559e-01 3.8133691996335983e-02</leafValues></_>
        <_>
          <internalNodes>
            0 -1 10 -4.6137347817420959e-03</internalNodes>
          <leafValues>
            2.8363096714019775e-01 -9.2585138976573944e-02</leafValues></_>
        <_>
          <internalNodes>
            0 -1 24 9.4757840037345886e-02</internalNodes>
          <leafValues>
            -6.6310942173004150e-02 4.9021714925765991e-01</leafValues></_>
        <_>
          <internalNodes>
            0 -1 109 -6.5147862187586725e-05</internalNodes>
          <leafValues>
            -2.4347889423370361e-01 1.2268708646297455e-01</leafValues></_>
        <_>
          <internalNodes>
            0 -1 178 1.4180762809701264e-04</internalNodes>
          <leafValues>
            7.3970414698123932e-02 -3.5265213251113892e-01</leafValues></_>
        <_>
          <internalNodes>
            0 -1 103 -2.0695883780717850e-02</internalNodes>
          <leafValues>
            2.6558491587638855e-01 -8.3943694829940796e-02</leafValues></_>
        <_>
          <internalNodes>
            0 -1 1 7.2692655958235264e-03</internalNodes>
          <leafValues>
            -9.6548415720462799e-02 3.5468292236328125e-01</leafValues></_>
        <_>
          <internalNodes>
            0 -1 58 -9.2850122600793839e-03</internalNodes>
          <leafValues>
            2.3310530185699463e-01 -1.1754875630140305e-01</leafValues></_>
        <_>
          <internalNodes>
            0 -1 94 1.5751775354146957e-03</internalNodes>
          <leafValues>
            4.5270022004842758e-02 -5.1786172389984131e-01</leafValues></_>
        <_>
          <internalNodes>
            0 -1 97 -5.5536860600113869e-03</internalNodes>
          <leafValues>
            4.0782210230827332e-01 -7.2711333632469177e-02</leafValues></_>
        <_>
          <internalNodes>
            0 -1 210 1.5421770513057709e-02</internalNodes>
          <leafValues>
            -4.4851776212453842e-02 6.3932234048843384e-01</leafValues></_>
        <_>
          <internalNodes>
            0 -1 272 4.4716943055391312e-02</internalNodes>
          <leafValues>
            -8.0719865858554840e-02 3.6098670959472656e-01</leafValues></_>
        <_>
          <internalNodes>
            0 -1 307 -8.6472406983375549e-03</internalNodes>
          <leafValues>
            2.6438933610916138e-01 -1.1260607093572617e-01</leafValues></_>
        <_>
          <internalNodes>
            0 -1 320 3.9033852517604828e-03</internalNodes>
          <leafValues>
            -1.0714468359947205e-01 2.5346189737319946e-01</leafValues></_>
        <_>
          <internalNodes>
            0 -1 37 -6.0533173382282257e-04</internalNodes>
          <leafValues>
            -5.4581463336944580e-01 5.7264104485511780e-02</leafValues></_>
        <_>
          <internalNodes>
            0 -1 155 -4.9059204757213593e-03</internalNodes>
          <leafValues>
            3.2865071296691895e-01 -8.5836030542850494e-02</leafValues></_>
        <_>
          <internalNodes>
            0 -1 62 -1.2117074802517891e-03</internalNodes>
          <leafValues>
            -5.7596981525421143e-01 5.1825851202011108e-02</leafValues></_>
        <_>
          <internalNodes>
            0 -1 331 2.7732382295653224e-04</internalNodes>
          <leafValues>
            7.0452973246574402e-02 -3.1330132484436035e-01</leafValues></_>
        <_>
          <internalNodes>
            0 -1 249 -2.3598470725119114e-03</internalNodes>
          <leafValues>
            1.8755227327346802e-01 -1.3023665547370911e-01</leafValues></_>
        <_>
          <internalNodes>
            0 -1 284 -3.1031137332320213e-03</internalNodes>
          <leafValues>
            3.1989511847496033e-01 -8.8295839726924896e-02</leafValues></_>
        <_>
          <internalNodes>
            0 -1 212 7.7904749196022749e-04</internalNodes>
          <leafValues>
            -9.8917879164218903e-02 2.5353971123695374e-01</leafValues></_>
        <_>
          <internalNodes>
            0 -1 219 1.7036297358572483e-03</internalNodes>
          <leafValues>
            3.0686907470226288e-02 -7.3538029193878174e-01</leafValues></_>
        <_>
          <internalNodes>
            0 -1 297 2.6058855000883341e-03</internalNodes>
          <leafValues>
            -1.3170370459556580e-01 1.9682928919792175e-01</leafValues></_>
        <_>
          <internalNodes>
            0 -1 31 4.3998453766107559e-03</internalNodes>
          <leafValues>
            -1.3027819991111755e-01 1.9385166466236115e-01</leafValues></_>
        <_>
          <internalNodes>
            0 -1 206 6.0867046704515815e-04</internalNodes>
          <leafValues>
            7.2088077664375305e-02 -3.6801061034202576e-01</leafValues></_>
        <_>
          <internalNodes>
            0 -1 208 1.2221501767635345e-01</internalNodes>
          <leafValues>
            3.6493316292762756e-02 -6.1114352941513062e-01</leafValues></_>
        <_>
          <internalNodes>
            0 -1 171 -1.2877639383077621e-03</internalNodes>
          <leafValues>
            -3.4127268195152283e-01 7.3944747447967529e-02</leafValues></_>
        <_>
          <internalNodes>
            0 -1 150 -7.3170580435544252e-04</internalNodes>
          <leafValues>
            3.0210551619529724e-01 -8.3449155092239380e-02</leafValues></_>
        <_>
          <internalNodes>
            0 -1 161 -3.4311454743146896e-02</internalNodes>
          <leafValues>
            -4.2999118566513062e-01 6.1956044286489487e-02</leafValues></_>
        <_>
          <internalNodes>
            0 -1 229 9.0670660138130188e-03</internalNodes>
          <leafValues>
            3.3872500061988831e-02 -6.8030446767807007e-01</leafValues></_>
        <_>
          <internalNodes>
            0 -1 131 -1.2547623366117477e-02</internalNodes>
          <leafValues>
            3.5907676815986633e-01 -7.1550495922565460e-02</leafValues></_>
        <_>
          <internalNodes>
            0 -1 268 -1.1407117563067004e-04</internalNodes>
          <leafValues>
            -2.5428023934364319e-01 9.0501971542835236e-02</leafValues></_>
        <_>
          <internalNodes>
            0 -1 300 6.7069893702864647e-04</internalNodes>
          <leafValues>
            4.4102013111114502e-02 -5.1218777894973755e-01</leafValues></_>
        <_>
          <internalNodes>
            0 -1 264 -2.3227529600262642e-03</internalNodes>
          <leafValues>
            2.7196601033210754e-01 -9.1283597052097321e-02</leafValues></_>
        <_>
          <internalNodes>
            0 -1 271 3.5167089663445950e-04</internalNodes>
          <leafValues>
            -9.5781721174716949e-02 2.8254532814025879e-01</leafValues></_>
        <_>
          <internalNodes>
            0 -1 45 -4.5308321714401245e-02</internalNodes>
          <leafValues>
            6.0055255889892578e-02 -4.2761966586112976e-01</leafValues></_>
        <_>
          <internalNodes>
            0 -1 37 7.4725603917613626e-04</internalNodes>
          <leafValues>
            3.6343637853860855e-02 -5.9034878015518188e-01</leafValues></_>
        <_>
          <internalNodes>
            0 -1 334 -4.4342910405248404e-04</internalNodes>
          <leafValues>
            -3.9408922195434570e-01 5.2548784762620926e-02</leafValues></_>
        <_>
          <internalNodes>
            0 -1 239 -3.0738115310668945e-03</internalNodes>
          <leafValues>
            2.1260218322277069e-01 -1.1187101900577545e-01</leafValues></_></weakClassifiers></_>
    <!-- stage 9 -->
    <_>
      <maxWeakCount>51</maxWeakCount>
      <stageThreshold>-1.2838909626007080e+00</stageThreshold>
      <weakClassifiers>
        <_>
          <internalNodes>
            0 -1 100 -1.1318249627947807e-02</internalNodes>
          <leafValues>
            9.4629153609275818e-02 -4.5316860079765320e-01</leafValues></_>
        <_>
          <internalNodes>
            0 -1 302 -2.6584598235785961e-03</internalNodes>
          <leafValues>
            3.8525345921516418e-01 -1.0334626585245132e-01</leafValues></_>
        <_>
          <internalNodes>
            0 -1 157 -8.1129110185429454e-05</internalNodes>
          <leafValues>
            -2.4418905377388000e-01 1.2253529578447342e-01</leafValues></_>
        <_>
          <internalNodes>
            0 -1 139 -5.7881932705640793e-02</internalNodes>
          <leafValues>
            -4.3670389056205750e-01 6.1632853001356125e-02</leafValues></_>
        <_>
          <internalNodes>
            0 -1 26 -8.6439073085784912e-02</internalNodes>
          <leafValues>
            -3.5069301724433899e-01 1.3335493206977844e-01</leafValues></_>
        <_>
          <internalNodes>
            0 -1 64 7.0357583463191986e-03</internalNodes>
          <leafValues>
            -9.7250767052173615e-02 4.0245801210403442e-01</leafValues></_>
        <_>
          <internalNodes>
            0 -1 157 4.0527008241042495e-04</internalNodes>
          <leafValues>
            8.2306921482086182e-02 -3.6666095256805420e-01</leafValues></_>
        <_>
          <internalNodes>
            0 -1 6 -3.4566328395158052e-03</internalNodes>
          <leafValues>
            3.4822502732276917e-01 -7.9756654798984528e-02</leafValues></_>
        <_>
          <internalNodes>
            0 -1 118 -9.3005672097206116e-03</internalNodes>
          <leafValues>
            4.6141159534454346e-01 -7.4478097259998322e-02</leafValues></_>
        <_>
          <internalNodes>
            0 -1 28 1.7712843837216496e-03</internalNodes>
          <leafValues>
            -1.1237410455942154e-01 2.2245626151561737e-01</leafValues></_>
        <_>
          <internalNodes>
            0 -1 181 -9.5490567386150360e-02</internalNodes>
          <leafValues>
            3.2983592152595520e-01 -7.7938891947269440e-02</leafValues></_>
        <_>
          <internalNodes>
            0 -1 218 -3.0136196874082088e-03</internalNodes>
          <leafValues>
            4.1582220792770386e-01 -6.8264819681644440e-02</leafValues></_>
        <_>
          <internalNodes>
            0 -1 3 1.0580459609627724e-02</internalNodes>
          <leafValues>
            6.6694371402263641e-02 -4.5879283547401428e-01</leafValues></_>
        <_>
          <internalNodes>
            0 -1 200 1.6205478459596634e-03</internalNodes>
          <leafValues>
            2.4923007935285568e-02 -7.2576040029525757e-01</leafValues></_>
        <_>
          <internalNodes>
            0 -1 270 2.4374788627028465e-03</internalNodes>
          <leafValues>
            -8.9673526585102081e-02 2.9931688308715820e-01</leafValues></_>
        <_>
          <internalNodes>
            0 -1 269 -5.0726281479001045e-03</internalNodes>
          <leafValues>
            3.1328907608985901e-01 -9.0604372322559357e-02</leafValues></_>
        <_>
          <internalNodes>
            0 -1 215 -1.7901851097121835e-03</internalNodes>
          <leafValues>
            -7.5977438688278198e-01 4.3393362313508987e-02</leafValues></_>
        <_>
          <internalNodes>
            0 -1 190 2.4141816538758576e-04</internalNodes>
          <leafValues>
            8.8147327303886414e-02 -2.3314057290554047e-01</leafValues></_>
        <_>
          <internalNodes>
            0 -1 279 2.1314133482519537e-04</internalNodes>
          <leafValues>
            -1.4402516186237335e-01 1.6307058930397034e-01</leafValues></_>
        <_>
          <internalNodes>
            0 -1 330 -4.6908348798751831e-02</internalNodes>
          <leafValues>
            -7.2820156812667847e-01 2.6985200121998787e-02</leafValues></_>
        <_>
          <internalNodes>
            0 -1 213 -2.0380304194986820e-03</internalNodes>
          <leafValues>
            2.7999585866928101e-01 -8.4741637110710144e-02</leafValues></_>
        <_>
          <internalNodes>
            0 -1 255 4.9849632196128368e-03</internalNodes>
          <leafValues>
            -8.0037459731101990e-02 2.9339718818664551e-01</leafValues></_>
        <_>
          <internalNodes>
            0 -1 92 -3.5212818533182144e-02</internalNodes>
          <leafValues>
            -4.1702774167060852e-01 6.7566148936748505e-02</leafValues></_>
        <_>
          <internalNodes>
            0 -1 257 8.9642294915392995e-04</internalNodes>
          <leafValues>
            4.8353850841522217e-02 -4.2299938201904297e-01</leafValues></_>
        <_>
          <internalNodes>
            0 -1 119 -1.6126425471156836e-03</internalNodes>
          <leafValues>
            2.4974612891674042e-01 -9.5791287720203400e-02</leafValues></_>
        <_>
          <internalNodes>
            0 -1 98 1.1324831284582615e-03</internalNodes>
          <leafValues>
            -3.3072050660848618e-02 6.4408850669860840e-01</leafValues></_>
        <_>
          <internalNodes>
            0 -1 303 -1.6934230225160718e-03</internalNodes>
          <leafValues>
            -5.3407764434814453e-01 4.3243348598480225e-02</leafValues></_>
        <_>
          <internalNodes>
            0 -1 148 -3.2938697841018438e-03</internalNodes>
          <leafValues>
            8.2277637720108032e-01 -3.1636394560337067e-02</leafValues></_>
        <_>
          <internalNodes>
            0 -1 287 -6.1954068951308727e-04</internalNodes>
          <leafValues>
            3.9086484909057617e-01 -5.1970027387142181e-02</leafValues></_>
        <_>
          <internalNodes>
            0 -1 115 -6.0394957661628723e-02</internalNodes>
          <leafValues>
            -4.1137701272964478e-01 5.7797037065029144e-02</leafValues></_>
        <_>
          <internalNodes>
            0 -1 187 -1.5847234753891826e-03</internalNodes>
          <leafValues>
            2.5217553973197937e-01 -9.7249858081340790e-02</leafValues></_>
        <_>
          <internalNodes>
            0 -1 154 -1.4883691910654306e-03</internalNodes>
          <leafValues>
            -6.5261930227279663e-01 3.7846375256776810e-02</leafValues></_>
        <_>
          <internalNodes>
            0 -1 199 -2.8861837927252054e-03</internalNodes>
          <leafValues>
            -7.8978218138217926e-02 3.1140667200088501e-01</leafValues></_>
        <_>
          <internalNodes>
            0 -1 194 -5.6689009070396423e-02</internalNodes>
          <leafValues>
            3.9051198959350586e-01 -6.2915496528148651e-02</leafValues></_>
        <_>
          <internalNodes>
            0 -1 111 1.1009646579623222e-02</internalNodes>
          <leafValues>
            -1.0532137751579285e-01 2.2403393685817719e-01</leafValues></_>
        <_>
          <internalNodes>
            0 -1 172 1.7946592997759581e-03</internalNodes>
          <leafValues>
            -9.5494948327541351e-02 2.4824354052543640e-01</leafValues></_>
        <_>
          <internalNodes>
            0 -1 328 -1.5951404930092394e-04</internalNodes>
          <leafValues>
            -2.7789899706840515e-01 8.4591709077358246e-02</leafValues></_>
        <_>
          <internalNodes>
            0 -1 299 2.4607713567093015e-04</internalNodes>
          <leafValues>
            -1.0164652019739151e-01 2.4206334352493286e-01</leafValues></_>
        <_>
          <internalNodes>
            0 -1 59 -1.8080387962982059e-03</internalNodes>
          <leafValues>
            2.9276552796363831e-01 -7.6652027666568756e-02</leafValues></_>
        <_>
          <internalNodes>
            0 -1 35 -2.2749777417629957e-04</internalNodes>
          <leafValues>
            -2.7149936556816101e-01 8.4065243601799011e-02</leafValues></_>
        <_>
          <internalNodes>
            0 -1 25 3.2701976597309113e-02</internalNodes>
          <leafValues>
            9.3584679067134857e-02 -2.6961931586265564e-01</leafValues></_>
        <_>
          <internalNodes>
            0 -1 71 1.5903061721473932e-03</internalNodes>
          <leafValues>
            -8.0695152282714844e-02 3.3813628554344177e-01</leafValues></_>
        <_>
          <internalNodes>
            0 -1 84 9.9562108516693115e-03</internalNodes>
          <leafValues>
            -1.0402257740497589e-01 2.1995255351066589e-01</leafValues></_>
        <_>
          <internalNodes>
            0 -1 281 -2.3860849905759096e-03</internalNodes>
          <leafValues>
            -5.8651995658874512e-01 3.9474930614233017e-02</leafValues></_>
        <_>
          <internalNodes>
            0 -1 291 -5.5983476340770721e-03</internalNodes>
          <leafValues>
            1.9804097712039948e-01 -1.2373584508895874e-01</leafValues></_>
        <_>
          <internalNodes>
            0 -1 294 4.6590957790613174e-03</internalNodes>
          <leafValues>
            -1.4577354490756989e-01 1.8570800125598907e-01</leafValues></_>
        <_>
          <internalNodes>
            0 -1 32 3.4674305934458971e-03</internalNodes>
          <leafValues>
            -3.9052125066518784e-02 6.1743187904357910e-01</leafValues></_>
        <_>
          <internalNodes>
            0 -1 290 -1.7013853648677468e-03</internalNodes>
          <leafValues>
            1.7050062119960785e-01 -1.3512678444385529e-01</leafValues></_>
        <_>
          <internalNodes>
            0 -1 289 -3.3874213695526123e-03</internalNodes>
          <leafValues>
            -6.2915122509002686e-01 4.0063615888357162e-02</leafValues></_>
        <_>
          <internalNodes>
            0 -1 230 -1.1056516086682677e-03</internalNodes>
          <leafValues>
            2.1139523386955261e-01 -1.0852625966072083e-01</leafValues></_>
        <_>
          <internalNodes>
            0 -1 231 -1.6635261476039886e-02</internalNodes>
          <leafValues>
            3.7128922343254089e-01 -5.7574678212404251e-02</leafValues></_></weakClassifiers></_></stages>
  <features>
    <_>
      <rects>
        <_>
          0 0 2 23 -1.</_>
        <_>
          1 0 1 23 2.</_></rects>
      <tilted>0</tilted></_>
    <_>
      <rects>
        <_>
          0 0 2 28 -1.</_>
        <_>
          1 0 1 28 2.</_></rects>
      <tilted>0</tilted></_>
    <_>
      <rects>
        <_>
          0 0 2 29 -1.</_>
        <_>
          1 0 1 29 2.</_></rects>
      <tilted>0</tilted></_>
    <_>
      <rects>
        <_>
          0 0 20 1 -1.</_>
        <_>
          10 0 10 1 2.</_></rects>
      <tilted>0</tilted></_>
    <_>
      <rects>
        <_>
          0 0 19 10 -1.</_>
        <_>
          0 5 19 5 2.</_></rects>
      <tilted>0</tilted></_>
    <_>
      <rects>
        <_>
          0 0 26 12 -1.</_>
        <_>
          0 6 26 6 2.</_></rects>
      <tilted>0</tilted></_>
    <_>
      <rects>
        <_>
          0 1 2 9 -1.</_>
        <_>
          1 1 1 9 2.</_></rects>
      <tilted>0</tilted></_>
    <_>
      <rects>
        <_>
          0 1 2 10 -1.</_>
        <_>
          1 1 1 10 2.</_></rects>
      <tilted>0</tilted></_>
    <_>
      <rects>
        <_>
          0 1 2 17 -1.</_>
        <_>
          1 1 1 17 2.</_></rects>
      <tilted>0</tilted></_>
    <_>
      <rects>
        <_>
          0 1 10 24 -1.</_>
        <_>
          0 1 5 12 2.</_>
        <_>
          5 13 5 12 2.</_></rects>
      <tilted>0</tilted></_>
    <_>
      <rects>
        <_>
          0 2 2 15 -1.</_>
        <_>
          1 2 1 15 2.</_></rects>
      <tilted>0</tilted></_>
    <_>
      <rects>
        <_>
          0 2 4 27 -1.</_>
        <_>
          2 2 2 27 2.</_></rects>
      <tilted>0</tilted></_>
    <_>
      <rects>
        <_>
          0 3 2 13 -1.</_>
        <_>
          1 3 1 13 2.</_></rects>
      <tilted>0</tilted></_>
    <_>
      <rects>
        <_>
          0 3 2 17 -1.</_>
        <_>
          1 3 1 17 2.</_></rects>
      <tilted>0</tilted></_>
    <_>
      <rects>
        <_>
          0 3 4 15 -1.</_>
        <_>
          2 3 2 15 2.</_></rects>
      <tilted>0</tilted></_>
    <_>
      <rects>
        <_>
          0 3 18 14 -1.</_>
        <_>
          0 3 9 7 2.</_>
        <_>
          9 10 9 7 2.</_></rects>
      <tilted>0</tilted></_>
    <_>
      <rects>
        <_>
          0 3 30 14 -1.</_>
        <_>
          0 3 15 7 2.</_>
        <_>
          15 10 15 7 2.</_></rects>
      <tilted>0</tilted></_>
    <_>
      <rects>
        <_>
          0 4 3 1 -1.</_>
        <_>
          1 4 1 1 2.</_></rects>
      <tilted>0</tilted></_>
    <_>
      <rects>
        <_>
          0 4 2 8 -1.</_>
        <_>
          1 4 1 8 2.</_></rects>
      <tilted>0</tilted></_>
    <_>
      <rects>
        <_>
          0 4 2 9 -1.</_>
        <_>
          1 4 1 9 2.</_></rects>
      <tilted>0</tilted></_>
    <_>
      <rects>
        <_>
          0 4 2 11 -1.</_>
        <_>
          1 4 1 11 2.</_></rects>
      <tilted>0</tilted></_>
    <_>
      <rects>
        <_>
          0 4 4 10 -1.</_>
        <_>
          2 4 2 10 2.</_></rects>
      <tilted>0</tilted></_>
    <_>
      <rects>
        <_>
          0 5 4 21 -1.</_>
        <_>
          2 5 2 21 2.</_></rects>
      <tilted>0</tilted></_>
    <_>
      <rects>
        <_>
          0 5 18 16 -1.</_>
        <_>
          0 5 9 8 2.</_>
        <_>
          9 13 9 8 2.</_></rects>
      <tilted>0</tilted></_>
    <_>
      <rects>
        <_>
          0 5 20 14 -1.</_>
        <_>
          0 5 10 7 2.</_>
        <_>
          10 12 10 7 2.</_></rects>
      <tilted>0</tilted></_>
    <_>
      <rects>
        <_>
          0 5 14 14 -1.</_>
        <_>
          0 12 14 7 2.</_></rects>
      <tilted>0</tilted></_>
    <_>
      <rects>
        <_>
          0 5 30 7 -1.</_>
        <_>
          15 5 15 7 2.</_></rects>
      <tilted>0</tilted></_>
    <_>
      <rects>
        <_>
          0 7 2 11 -1.</_>
        <_>
          1 7 1 11 2.</_></rects>
      <tilted>0</tilted></_>
    <_>
      <rects>
        <_>
          0 7 8 4 -1.</_>
        <_>
          0 7 4 2 2.</_>
        <_>
          4 9 4 2 2.</_></rects>
      <tilted>0</tilted></_>
    <_>
      <rects>
        <_>
          0 8 4 6 -1.</_>
        <_>
          2 8 2 6 2.</_></rects>
      <tilted>0</tilted></_>
    <_>
      <rects>
        <_>
          0 9 4 15 -1.</_>
        <_>
          2 9 2 15 2.</_></rects>
      <tilted>0</tilted></_>
    <_>
      <rects>
        <_>
          0 9 12 6 -1.</_>
        <_>
          0 9 6 3 2.</_>
        <_>
          6 12 6 3 2.</_></rects>
      <tilted>0</tilted></_>
    <_>
      <rects>
        <_>
          0 10 2 6 -1.</_>
        <_>
          0 10 1 3 2.</_>
        <_>
          1 13 1 3 2.</_></rects>
      <tilted>0</tilted></_>
    <_>
      <rects>
        <_>
          0 10 8 20 -1.</_>
        <_>
          4 10 4 20 2.</_></rects>
      <tilted>0</tilted></_>
    <_>
      <rects>
        <_>
          0 11 4 17 -1.</_>
        <_>
          2 11 2 17 2.</_></rects>
      <tilted>0</tilted></_>
    <_>
      <rects>
        <_>
          0 13 1 2 -1.</_>
        <_>
          0 14 1 1 2.</_></rects>
      <tilted>0</tilted></_>
    <_>
      <rects>
        <_>
          0 14 10 16 -1.</_>
        <_>
          5 14 5 16 2.</_></rects>
      <tilted>0</tilted></_>
    <_>
      <rects>
        <_>
          0 15 1 2 -1.</_>
        <_>
          0 16 1 1 2.</_></rects>
      <tilted>0</tilted></_>
    <_>
      <rects>
        <_>
          0 16 8 4 -1.</_>
        <_>
          4 16 4 4 2.</_></rects>
      <tilted>0</tilted></_>
    <_>
      <rects>
        <_>
          0 16 27 12 -1.</_>
        <_>
          0 22 27 6 2.</_></rects>
      <tilted>0</tilted></_>
    <_>
      <rects>
        <_>
          0 17 1 2 -1.</_>
        <_>
          0 18 1 1 2.</_></rects>
      <tilted>0</tilted></_>
    <_>
      <rects>
        <_>
          0 17 2 2 -1.</_>
        <_>
          0 17 1 1 2.</_>
        <_>
          1 18 1 1 2.</_></rects>
      <tilted>0</tilted></_>
    <_>
      <rects>
        <_>
          0 18 22 12 -1.</_>
        <_>
          0 22 22 4 2.</_></rects>
      <tilted>0</tilted></_>
    <_>
      <rects>
        <_>
          0 19 2 4 -1.</_>
        <_>
          0 21 2 2 2.</_></rects>
      <tilted>0</tilted></_>
    <_>
      <rects>
        <_>
          0 19 14 9 -1.</_>
        <_>
          7 19 7 9 2.</_></rects>
      <tilted>0</tilted></_>
    <_>
      <rects>
        <_>
          0 20 30 3 -1.</_>
        <_>
          10 20 10 3 2.</_></rects>
      <tilted>0</tilted></_>
    <_>
      <rects>
        <_>
          0 22 2 2 -1.</_>
        <_>
          0 23 2 1 2.</_></rects>
      <tilted>0</tilted></_>
    <_>
      <rects>
        <_>
          0 23 2 2 -1.</_>
        <_>
          0 24 2 1 2.</_></rects>
      <tilted>0</tilted></_>
    <_>
      <rects>
        <_>
          0 24 2 2 -1.</_>
        <_>
          0 25 2 1 2.</_></rects>
      <tilted>0</tilted></_>
    <_>
      <rects>
        <_>
          0 26 1 2 -1.</_>
        <_>
          0 27 1 1 2.</_></rects>
      <tilted>0</tilted></_>
    <_>
      <rects>
        <_>
          0 26 2 4 -1.</_>
        <_>
          0 26 1 2 2.</_>
        <_>
          1 28 1 2 2.</_></rects>
      <tilted>0</tilted></_>
    <_>
      <rects>
        <_>
          1 0 3 2 -1.</_>
        <_>
          1 1 3 1 2.</_></rects>
      <tilted>0</tilted></_>
    <_>
      <rects>
        <_>
          1 0 29 8 -1.</_>
        <_>
          1 4 29 4 2.</_></rects>
      <tilted>0</tilted></_>
    <_>
      <rects>
        <_>
          1 1 8 4 -1.</_>
        <_>
          1 1 4 2 2.</_>
        <_>
          5 3 4 2 2.</_></rects>
      <tilted>0</tilted></_>
    <_>
      <rects>
        <_>
          1 5 6 18 -1.</_>
        <_>
          1 5 3 9 2.</_>
        <_>
          4 14 3 9 2.</_></rects>
      <tilted>0</tilted></_>
    <_>
      <rects>
        <_>
          1 5 27 5 -1.</_>
        <_>
          10 5 9 5 2.</_></rects>
      <tilted>0</tilted></_>
    <_>
      <rects>
        <_>
          1 6 2 12 -1.</_>
        <_>
          1 6 1 6 2.</_>
        <_>
          2 12 1 6 2.</_></rects>
      <tilted>0</tilted></_>
    <_>
      <rects>
        <_>
          1 8 2 8 -1.</_>
        <_>
          1 8 1 4 2.</_>
        <_>
          2 12 1 4 2.</_></rects>
      <tilted>0</tilted></_>
    <_>
      <rects>
        <_>
          1 14 6 9 -1.</_>
        <_>
          4 14 3 9 2.</_></rects>
      <tilted>0</tilted></_>
    <_>
      <rects>
        <_>
          1 16 8 2 -1.</_>
        <_>
          1 16 4 1 2.</_>
        <_>
          5 17 4 1 2.</_></rects>
      <tilted>0</tilted></_>
    <_>
      <rects>
        <_>
          1 17 28 13 -1.</_>
        <_>
          15 17 14 13 2.</_></rects>
      <tilted>0</tilted></_>
    <_>
      <rects>
        <_>
          1 18 2 2 -1.</_>
        <_>
          1 19 2 1 2.</_></rects>
      <tilted>0</tilted></_>
    <_>
      <rects>
        <_>
          1 26 2 2 -1.</_>
        <_>
          1 27 2 1 2.</_></rects>
      <tilted>0</tilted></_>
    <_>
      <rects>
        <_>
          1 28 21 2 -1.</_>
        <_>
          1 29 21 1 2.</_></rects>
      <tilted>0</tilted></_>
    <_>
      <rects>
        <_>
          2 0 5 4 -1.</_>
        <_>
          2 2 5 2 2.</_></rects>
      <tilted>0</tilted></_>
    <_>
      <rects>
        <_>
          2 0 6 4 -1.</_>
        <_>
          2 2 6 2 2.</_></rects>
      <tilted>0</tilted></_>
    <_>
      <rects>
        <_>
          2 0 22 10 -1.</_>
        <_>
          2 5 22 5 2.</_></rects>
      <tilted>0</tilted></_>
    <_>
      <rects>
        <_>
          2 1 10 20 -1.</_>
        <_>
          2 1 5 10 2.</_>
        <_>
          7 11 5 10 2.</_></rects>
      <tilted>0</tilted></_>
    <_>
      <rects>
        <_>
          2 2 18 6 -1.</_>
        <_>
          2 2 9 3 2.</_>
        <_>
          11 5 9 3 2.</_></rects>
      <tilted>0</tilted></_>
    <_>
      <rects>
        <_>
          2 6 16 10 -1.</_>
        <_>
          2 6 8 5 2.</_>
        <_>
          10 11 8 5 2.</_></rects>
      <tilted>0</tilted></_>
    <_>
      <rects>
        <_>
          2 7 28 20 -1.</_>
        <_>
          2 17 28 10 2.</_></rects>
      <tilted>0</tilted></_>
    <_>
      <rects>
        <_>
          2 10 2 6 -1.</_>
        <_>
          2 10 1 3 2.</_>
        <_>
          3 13 1 3 2.</_></rects>
      <tilted>0</tilted></_>
    <_>
      <rects>
        <_>
          2 17 8 12 -1.</_>
        <_>
          6 17 4 12 2.</_></rects>
      <tilted>0</tilted></_>
    <_>
      <rects>
        <_>
          3 0 3 4 -1.</_>
        <_>
          3 2 3 2 2.</_></rects>
      <tilted>0</tilted></_>
    <_>
      <rects>
        <_>
          3 2 6 6 -1.</_>
        <_>
          3 2 3 3 2.</_>
        <_>
          6 5 3 3 2.</_></rects>
      <tilted>0</tilted></_>
    <_>
      <rects>
        <_>
          3 3 8 10 -1.</_>
        <_>
          3 3 4 5 2.</_>
        <_>
          7 8 4 5 2.</_></rects>
      <tilted>0</tilted></_>
    <_>
      <rects>
        <_>
          3 4 10 6 -1.</_>
        <_>
          3 4 5 3 2.</_>
        <_>
          8 7 5 3 2.</_></rects>
      <tilted>0</tilted></_>
    <_>
      <rects>
        <_>
          3 5 8 3 -1.</_>
        <_>
          7 5 4 3 2.</_></rects>
      <tilted>0</tilted></_>
    <_>
      <rects>
        <_>
          3 6 7 18 -1.</_>
        <_>
          3 12 7 6 2.</_></rects>
      <tilted>0</tilted></_>
    <_>
      <rects>
        <_>
          3 7 24 2 -1.</_>
        <_>
          11 7 8 2 2.</_></rects>
      <tilted>0</tilted></_>
    <_>
      <rects>
        <_>
          3 13 9 6 -1.</_>
        <_>
          3 16 9 3 2.</_></rects>
      <tilted>0</tilted></_>
    <_>
      <rects>
        <_>
          3 17 10 4 -1.</_>
        <_>
          3 17 5 2 2.</_>
        <_>
          8 19 5 2 2.</_></rects>
      <tilted>0</tilted></_>
    <_>
      <rects>
        <_>
          3 22 2 1 -1.</_>
        <_>
          4 22 1 1 2.</_></rects>
      <tilted>0</tilted></_>
    <_>
      <rects>
        <_>
          3 28 2 2 -1.</_>
        <_>
          3 28 1 1 2.</_>
        <_>
          4 29 1 1 2.</_></rects>
      <tilted>0</tilted></_>
    <_>
      <rects>
        <_>
          4 0 4 12 -1.</_>
        <_>
          4 6 4 6 2.</_></rects>
      <tilted>0</tilted></_>
    <_>
      <rects>
        <_>
          4 1 4 4 -1.</_>
        <_>
          4 1 2 2 2.</_>
        <_>
          6 3 2 2 2.</_></rects>
      <tilted>0</tilted></_>
    <_>
      <rects>
        <_>
          4 3 4 2 -1.</_>
        <_>
          6 3 2 2 2.</_></rects>
      <tilted>0</tilted></_>
    <_>
      <rects>
        <_>
          4 4 4 6 -1.</_>
        <_>
          4 4 2 3 2.</_>
        <_>
          6 7 2 3 2.</_></rects>
      <tilted>0</tilted></_>
    <_>
      <rects>
        <_>
          4 4 10 14 -1.</_>
        <_>
          4 4 5 7 2.</_>
        <_>
          9 11 5 7 2.</_></rects>
      <tilted>0</tilted></_>
    <_>
      <rects>
        <_>
          4 7 8 10 -1.</_>
        <_>
          4 7 4 5 2.</_>
        <_>
          8 12 4 5 2.</_></rects>
      <tilted>0</tilted></_>
    <_>
      <rects>
        <_>
          4 10 22 18 -1.</_>
        <_>
          4 10 11 9 2.</_>
        <_>
          15 19 11 9 2.</_></rects>
      <tilted>0</tilted></_>
    <_>
      <rects>
        <_>
          4 17 10 2 -1.</_>
        <_>
          4 17 5 1 2.</_>
        <_>
          9 18 5 1 2.</_></rects>
      <tilted>0</tilted></_>
    <_>
      <rects>
        <_>
          4 17 24 8 -1.</_>
        <_>
          4 17 12 4 2.</_>
        <_>
          16 21 12 4 2.</_></rects>
      <tilted>0</tilted></_>
    <_>
      <rects>
        <_>
          4 21 18 8 -1.</_>
        <_>
          4 25 18 4 2.</_></rects>
      <tilted>0</tilted></_>
    <_>
      <rects>
        <_>
          5 0 4 1 -1.</_>
        <_>
          7 0 2 1 2.</_></rects>
      <tilted>0</tilted></_>
    <_>
      <rects>
        <_>
          5 0 18 10 -1.</_>
        <_>
          5 5 18 5 2.</_></rects>
      <tilted>0</tilted></_>
    <_>
      <rects>
        <_>
          5 0 22 10 -1.</_>
        <_>
          5 5 22 5 2.</_></rects>
      <tilted>0</tilted></_>
    <_>
      <rects>
        <_>
          5 1 4 6 -1.</_>
        <_>
          5 1 2 3 2.</_>
        <_>
          7 4 2 3 2.</_></rects>
      <tilted>0</tilted></_>
    <_>
      <rects>
        <_>
          5 2 2 2 -1.</_>
        <_>
          5 2 1 1 2.</_>
        <_>
          6 3 1 1 2.</_></rects>
      <tilted>0</tilted></_>
    <_>
      <rects>
        <_>
          5 3 23 10 -1.</_>
        <_>
          5 8 23 5 2.</_></rects>
      <tilted>0</tilted></_>
    <_>
      <rects>
        <_>
          5 4 6 6 -1.</_>
        <_>
          5 4 3 3 2.</_>
        <_>
          8 7 3 3 2.</_></rects>
      <tilted>0</tilted></_>
    <_>
      <rects>
        <_>
          5 5 6 2 -1.</_>
        <_>
          8 5 3 2 2.</_></rects>
      <tilted>0</tilted></_>
    <_>
      <rects>
        <_>
          5 5 21 5 -1.</_>
        <_>
          12 5 7 5 2.</_></rects>
      <tilted>0</tilted></_>
    <_>
      <rects>
        <_>
          5 6 10 10 -1.</_>
        <_>
          5 6 5 5 2.</_>
        <_>
          10 11 5 5 2.</_></rects>
      <tilted>0</tilted></_>
    <_>
      <rects>
        <_>
          5 12 21 6 -1.</_>
        <_>
          5 15 21 3 2.</_></rects>
      <tilted>0</tilted></_>
    <_>
      <rects>
        <_>
          5 17 6 2 -1.</_>
        <_>
          5 17 3 1 2.</_>
        <_>
          8 18 3 1 2.</_></rects>
      <tilted>0</tilted></_>
    <_>
      <rects>
        <_>
          5 17 8 4 -1.</_>
        <_>
          5 17 4 2 2.</_>
        <_>
          9 19 4 2 2.</_></rects>
      <tilted>0</tilted></_>
    <_>
      <rects>
        <_>
          5 18 23 10 -1.</_>
        <_>
          5 23 23 5 2.</_></rects>
      <tilted>0</tilted></_>
    <_>
      <rects>
        <_>
          5 22 13 8 -1.</_>
        <_>
          5 26 13 4 2.</_></rects>
      <tilted>0</tilted></_>
    <_>
      <rects>
        <_>
          6 0 2 1 -1.</_>
        <_>
          7 0 1 1 2.</_></rects>
      <tilted>0</tilted></_>
    <_>
      <rects>
        <_>
          6 0 3 8 -1.</_>
        <_>
          6 4 3 4 2.</_></rects>
      <tilted>0</tilted></_>
    <_>
      <rects>
        <_>
          6 0 6 13 -1.</_>
        <_>
          9 0 3 13 2.</_></rects>
      <tilted>0</tilted></_>
    <_>
      <rects>
        <_>
          6 2 3 6 -1.</_>
        <_>
          6 5 3 3 2.</_></rects>
      <tilted>0</tilted></_>
    <_>
      <rects>
        <_>
          6 5 6 5 -1.</_>
        <_>
          9 5 3 5 2.</_></rects>
      <tilted>0</tilted></_>
    <_>
      <rects>
        <_>
          6 6 20 22 -1.</_>
        <_>
          6 6 10 11 2.</_>
        <_>
          16 17 10 11 2.</_></rects>
      <tilted>0</tilted></_>
    <_>
      <rects>
        <_>
          6 10 7 20 -1.</_>
        <_>
          6 20 7 10 2.</_></rects>
      <tilted>0</tilted></_>
    <_>
      <rects>
        <_>
          6 16 6 8 -1.</_>
        <_>
          6 16 3 4 2.</_>
        <_>
          9 20 3 4 2.</_></rects>
      <tilted>0</tilted></_>
    <_>
      <rects>
        <_>
          6 17 4 4 -1.</_>
        <_>
          6 17 2 2 2.</_>
        <_>
          8 19 2 2 2.</_></rects>
      <tilted>0</tilted></_>
    <_>
      <rects>
        <_>
          6 17 10 4 -1.</_>
        <_>
          6 17 5 2 2.</_>
        <_>
          11 19 5 2 2.</_></rects>
      <tilted>0</tilted></_>
    <_>
      <rects>
        <_>
          6 20 12 2 -1.</_>
        <_>
          6 20 6 1 2.</_>
        <_>
          12 21 6 1 2.</_></rects>
      <tilted>0</tilted></_>
    <_>
      <rects>
        <_>
          7 0 2 2 -1.</_>
        <_>
          7 0 1 1 2.</_>
        <_>
          8 1 1 1 2.</_></rects>
      <tilted>0</tilted></_>
    <_>
      <rects>
        <_>
          7 0 11 12 -1.</_>
        <_>
          7 6 11 6 2.</_></rects>
      <tilted>0</tilted></_>
    <_>
      <rects>
        <_>
          7 0 16 18 -1.</_>
        <_>
          7 9 16 9 2.</_></rects>
      <tilted>0</tilted></_>
    <_>
      <rects>
        <_>
          7 2 4 16 -1.</_>
        <_>
          7 2 2 8 2.</_>
        <_>
          9 10 2 8 2.</_></rects>
      <tilted>0</tilted></_>
    <_>
      <rects>
        <_>
          7 12 20 16 -1.</_>
        <_>
          7 12 10 8 2.</_>
        <_>
          17 20 10 8 2.</_></rects>
      <tilted>0</tilted></_>
    <_>
      <rects>
        <_>
          7 14 10 4 -1.</_>
        <_>
          7 14 5 2 2.</_>
        <_>
          12 16 5 2 2.</_></rects>
      <tilted>0</tilted></_>
    <_>
      <rects>
        <_>
          7 16 3 4 -1.</_>
        <_>
          8 16 1 4 2.</_></rects>
      <tilted>0</tilted></_>
    <_>
      <rects>
        <_>
          7 16 4 2 -1.</_>
        <_>
          7 17 4 1 2.</_></rects>
      <tilted>0</tilted></_>
    <_>
      <rects>
        <_>
          7 16 10 3 -1.</_>
        <_>
          7 17 10 1 2.</_></rects>
      <tilted>0</tilted></_>
    <_>
      <rects>
        <_>
          7 18 2 2 -1.</_>
        <_>
          7 18 1 1 2.</_>
        <_>
          8 19 1 1 2.</_></rects>
      <tilted>0</tilted></_>
    <_>
      <rects>
        <_>
          7 19 5 2 -1.</_>
        <_>
          7 20 5 1 2.</_></rects>
      <tilted>0</tilted></_>
    <_>
      <rects>
        <_>
          7 23 8 6 -1.</_>
        <_>
          7 26 8 3 2.</_></rects>
      <tilted>0</tilted></_>
    <_>
      <rects>
        <_>
          7 26 8 4 -1.</_>
        <_>
          7 26 4 2 2.</_>
        <_>
          11 28 4 2 2.</_></rects>
      <tilted>0</tilted></_>
    <_>
      <rects>
        <_>
          7 28 17 2 -1.</_>
        <_>
          7 29 17 1 2.</_></rects>
      <tilted>0</tilted></_>
    <_>
      <rects>
        <_>
          8 0 2 2 -1.</_>
        <_>
          8 0 1 1 2.</_>
        <_>
          9 1 1 1 2.</_></rects>
      <tilted>0</tilted></_>
    <_>
      <rects>
        <_>
          8 0 4 2 -1.</_>
        <_>
          8 0 2 1 2.</_>
        <_>
          10 1 2 1 2.</_></rects>
      <tilted>0</tilted></_>
    <_>
      <rects>
        <_>
          8 2 9 13 -1.</_>
        <_>
          11 2 3 13 2.</_></rects>
      <tilted>0</tilted></_>
    <_>
      <rects>
        <_>
          8 3 12 8 -1.</_>
        <_>
          8 7 12 4 2.</_></rects>
      <tilted>0</tilted></_>
    <_>
      <rects>
        <_>
          8 3 14 8 -1.</_>
        <_>
          8 7 14 4 2.</_></rects>
      <tilted>0</tilted></_>
    <_>
      <rects>
        <_>
          8 8 14 18 -1.</_>
        <_>
          8 8 7 9 2.</_>
        <_>
          15 17 7 9 2.</_></rects>
      <tilted>0</tilted></_>
    <_>
      <rects>
        <_>
          8 9 3 6 -1.</_>
        <_>
          8 12 3 3 2.</_></rects>
      <tilted>0</tilted></_>
    <_>
      <rects>
        <_>
          8 12 6 2 -1.</_>
        <_>
          8 12 3 1 2.</_>
        <_>
          11 13 3 1 2.</_></rects>
      <tilted>0</tilted></_>
    <_>
      <rects>
        <_>
          8 14 15 4 -1.</_>
        <_>
          8 16 15 2 2.</_></rects>
      <tilted>0</tilted></_>
    <_>
      <rects>
        <_>
          8 16 4 6 -1.</_>
        <_>
          8 16 2 3 2.</_>
        <_>
          10 19 2 3 2.</_></rects>
      <tilted>0</tilted></_>
    <_>
      <rects>
        <_>
          8 19 15 2 -1.</_>
        <_>
          8 20 15 1 2.</_></rects>
      <tilted>0</tilted></_>
    <_>
      <rects>
        <_>
          8 22 4 8 -1.</_>
        <_>
          8 26 4 4 2.</_></rects>
      <tilted>0</tilted></_>
    <_>
      <rects>
        <_>
          9 0 2 2 -1.</_>
        <_>
          9 0 1 1 2.</_>
        <_>
          10 1 1 1 2.</_></rects>
      <tilted>0</tilted></_>
    <_>
      <rects>
        <_>
          9 0 20 2 -1.</_>
        <_>
          9 1 20 1 2.</_></rects>
      <tilted>0</tilted></_>
    <_>
      <rects>
        <_>
          9 15 2 2 -1.</_>
        <_>
          9 16 2 1 2.</_></rects>
      <tilted>0</tilted></_>
    <_>
      <rects>
        <_>
          9 16 2 4 -1.</_>
        <_>
          9 16 1 2 2.</_>
        <_>
          10 18 1 2 2.</_></rects>
      <tilted>0</tilted></_>
    <_>
      <rects>
        <_>
          9 19 2 2 -1.</_>
        <_>
          9 20 2 1 2.</_></rects>
      <tilted>0</tilted></_>
    <_>
      <rects>
        <_>
          9 19 13 10 -1.</_>
        <_>
          9 24 13 5 2.</_></rects>
      <tilted>0</tilted></_>
    <_>
      <rects>
        <_>
          9 21 12 8 -1.</_>
        <_>
          9 25 12 4 2.</_></rects>
      <tilted>0</tilted></_>
    <_>
      <rects>
        <_>
          9 24 18 6 -1.</_>
        <_>
          9 27 18 3 2.</_></rects>
      <tilted>0</tilted></_>
    <_>
      <rects>
        <_>
          9 28 2 2 -1.</_>
        <_>
          10 28 1 2 2.</_></rects>
      <tilted>0</tilted></_>
    <_>
      <rects>
        <_>
          9 28 17 2 -1.</_>
        <_>
          9 29 17 1 2.</_></rects>
      <tilted>0</tilted></_>
    <_>
      <rects>
        <_>
          10 0 2 2 -1.</_>
        <_>
          10 0 1 1 2.</_>
        <_>
          11 1 1 1 2.</_></rects>
      <tilted>0</tilted></_>
    <_>
      <rects>
        <_>
          10 0 4 2 -1.</_>
        <_>
          10 0 2 1 2.</_>
        <_>
          12 1 2 1 2.</_></rects>
      <tilted>0</tilted></_>
    <_>
      <rects>
        <_>
          10 0 12 1 -1.</_>
        <_>
          16 0 6 1 2.</_></rects>
      <tilted>0</tilted></_>
    <_>
      <rects>
        <_>
          10 2 11 12 -1.</_>
        <_>
          10 8 11 6 2.</_></rects>
      <tilted>0</tilted></_>
    <_>
      <rects>
        <_>
          10 5 12 6 -1.</_>
        <_>
          10 8 12 3 2.</_></rects>
      <tilted>0</tilted></_>
    <_>
      <rects>
        <_>
          10 13 7 14 -1.</_>
        <_>
          10 20 7 7 2.</_></rects>
      <tilted>0</tilted></_>
    <_>
      <rects>
        <_>
          10 15 18 6 -1.</_>
        <_>
          19 15 9 6 2.</_></rects>
      <tilted>0</tilted></_>
    <_>
      <rects>
        <_>
          10 18 6 4 -1.</_>
        <_>
          10 18 3 2 2.</_>
        <_>
          13 20 3 2 2.</_></rects>
      <tilted>0</tilted></_>
    <_>
      <rects>
        <_>
          10 18 6 6 -1.</_>
        <_>
          10 18 3 3 2.</_>
        <_>
          13 21 3 3 2.</_></rects>
      <tilted>0</tilted></_>
    <_>
      <rects>
        <_>
          10 20 20 10 -1.</_>
        <_>
          10 25 20 5 2.</_></rects>
      <tilted>0</tilted></_>
    <_>
      <rects>
        <_>
          10 27 10 2 -1.</_>
        <_>
          10 28 10 1 2.</_></rects>
      <tilted>0</tilted></_>
    <_>
      <rects>
        <_>
          11 0 2 1 -1.</_>
        <_>
          12 0 1 1 2.</_></rects>
      <tilted>0</tilted></_>
    <_>
      <rects>
        <_>
          11 1 2 2 -1.</_>
        <_>
          11 1 1 1 2.</_>
        <_>
          12 2 1 1 2.</_></rects>
      <tilted>0</tilted></_>
    <_>
      <rects>
        <_>
          11 6 16 6 -1.</_>
        <_>
          11 6 8 3 2.</_>
        <_>
          19 9 8 3 2.</_></rects>
      <tilted>0</tilted></_>
    <_>
      <rects>
        <_>
          11 7 2 14 -1.</_>
        <_>
          12 7 1 14 2.</_></rects>
      <tilted>0</tilted></_>
    <_>
      <rects>
        <_>
          11 13 8 2 -1.</_>
        <_>
          11 13 4 1 2.</_>
        <_>
          15 14 4 1 2.</_></rects>
      <tilted>0</tilted></_>
    <_>
      <rects>
        <_>
          11 16 13 2 -1.</_>
        <_>
          11 17 13 1 2.</_></rects>
      <tilted>0</tilted></_>
    <_>
      <rects>
        <_>
          11 17 4 6 -1.</_>
        <_>
          11 17 2 3 2.</_>
        <_>
          13 20 2 3 2.</_></rects>
      <tilted>0</tilted></_>
    <_>
      <rects>
        <_>
          11 24 3 2 -1.</_>
        <_>
          11 25 3 1 2.</_></rects>
      <tilted>0</tilted></_>
    <_>
      <rects>
        <_>
          11 27 4 3 -1.</_>
        <_>
          13 27 2 3 2.</_></rects>
      <tilted>0</tilted></_>
    <_>
      <rects>
        <_>
          11 28 2 1 -1.</_>
        <_>
          12 28 1 1 2.</_></rects>
      <tilted>0</tilted></_>
    <_>
      <rects>
        <_>
          11 28 11 2 -1.</_>
        <_>
          11 29 11 1 2.</_></rects>
      <tilted>0</tilted></_>
    <_>
      <rects>
        <_>
          12 0 2 2 -1.</_>
        <_>
          12 0 1 1 2.</_>
        <_>
          13 1 1 1 2.</_></rects>
      <tilted>0</tilted></_>
    <_>
      <rects>
        <_>
          12 0 6 2 -1.</_>
        <_>
          12 0 3 1 2.</_>
        <_>
          15 1 3 1 2.</_></rects>
      <tilted>0</tilted></_>
    <_>
      <rects>
        <_>
          12 1 1 2 -1.</_>
        <_>
          12 2 1 1 2.</_></rects>
      <tilted>0</tilted></_>
    <_>
      <rects>
        <_>
          12 1 5 22 -1.</_>
        <_>
          12 12 5 11 2.</_></rects>
      <tilted>0</tilted></_>
    <_>
      <rects>
        <_>
          12 2 2 2 -1.</_>
        <_>
          12 2 1 1 2.</_>
        <_>
          13 3 1 1 2.</_></rects>
      <tilted>0</tilted></_>
    <_>
      <rects>
        <_>
          12 4 6 10 -1.</_>
        <_>
          12 9 6 5 2.</_></rects>
      <tilted>0</tilted></_>
    <_>
      <rects>
        <_>
          12 5 14 5 -1.</_>
        <_>
          19 5 7 5 2.</_></rects>
      <tilted>0</tilted></_>
    <_>
      <rects>
        <_>
          12 6 14 10 -1.</_>
        <_>
          12 6 7 5 2.</_>
        <_>
          19 11 7 5 2.</_></rects>
      <tilted>0</tilted></_>
    <_>
      <rects>
        <_>
          12 12 4 2 -1.</_>
        <_>
          12 13 4 1 2.</_></rects>
      <tilted>0</tilted></_>
    <_>
      <rects>
        <_>
          12 15 2 7 -1.</_>
        <_>
          13 15 1 7 2.</_></rects>
